<Nnet> 
<AffineTransform> 128 440 
<LearnRateCoef> 1 <BiasLearnRateCoef> 1 <MaxNorm> 0  [
  0.160602 -0.2041409 -0.1962679 0.12997 0.1463179 -0.01782336 -0.1003745 -0.06051817 0.0143305 0.01187743 0.001143159 -0.09999286 -0.01149541 0.02903481 -0.0007825835 -0.04614437 0.01409465 -0.02180697 -0.08641753 -0.1031927 0.01044896 0.1467829 0.2134535 0.1720619 0.08464457 0.01315123 -0.009213296 -0.04469411 0.09048805 0.006047568 0.03239242 -0.04060166 -0.01426478 -0.01378213 0.02221025 0.03374467 0.1129326 0.03693878 0.2685492 0.07319325 0.08748523 -0.1932208 -0.09087303 0.2182853 0.1493512 -0.08305325 -0.006576268 0.1392662 0.01754943 0.1819736 -0.02585023 0.001043793 -0.05392374 -0.1156205 -0.00245592 -0.002274695 -0.09418641 -0.09028748 -0.07630883 -0.128042 -0.03011372 0.1506575 0.1691605 0.02144554 0.026784 0.03854214 -0.04710846 0.1095086 0.002554262 0.02344963 -0.03326822 0.003095568 0.01086704 -0.07649429 0.08300386 0.1290461 0.01876573 -0.05086071 0.0864417 0.09238103 0.08237244 -0.1602442 0.02614468 0.2312608 0.1475614 -0.00721299 0.08931801 0.04870462 0.1614209 0.009587467 -0.1828216 -0.1413088 -0.01551694 -0.0355064 -0.008933041 0.06151743 -0.1785465 -0.04343683 -0.04167028 -0.02781075 -0.02174837 0.1906539 0.09330103 0.1385491 0.06717066 0.07238595 -0.09187554 0.02209124 -0.07536403 0.1496363 -0.03020077 -0.02653377 -0.01278458 -0.1374464 -0.02570199 0.1218755 0.05383588 0.02590643 0.0413469 0.01367821 -0.006491649 -0.1283188 -0.01010498 0.2024304 0.2207603 0.05894849 0.08970805 0.08106578 0.01219764 0.113088 0.01452386 -0.05823978 0.07097073 -0.02366801 -0.03388875 -0.06831922 0.01955416 -0.04583808 -0.04339341 -0.09030189 0.07066806 0.1592957 0.02797714 0.08437199 -0.01472703 0.004785604 -0.05581283 -0.01935782 -0.08234251 -0.09463245 0.02820466 -0.1469249 0.06946814 -0.07500215 0.003152667 -0.004927009 0.08140328 0.06364188 -0.08710248 -0.07228069 0.104205 -0.116297 -0.003871986 0.2279274 0.264033 -0.0002912793 0.09991989 0.01462204 0.004756347 0.06534521 -0.01806347 0.009184234 -0.0149484 -0.0408709 0.006342766 -0.01570642 -0.00380936 -0.1165026 -0.0485897 -0.08304269 0.009234883 0.1324788 -0.007844293 0.07873167 0.03311804 -0.01399874 -0.1633237 -0.08802827 -0.04871878 -0.01196629 0.03611799 -0.1024097 -0.05971254 -0.06295916 -0.1282142 0.1453187 -0.02379934 -0.01567911 0.08351972 -0.1095648 0.1332048 -0.2497617 -0.02785783 0.2869702 0.3020378 0.0415102 -0.003352266 -0.1081016 -0.005647494 0.05399475 0.06110008 -0.02163769 0.0379166 -0.08615053 0.06095492 -0.04946916 -0.06655469 -0.09813554 -0.04697283 -0.005342995 0.09728933 0.1302129 -0.05328846 0.0008613463 -0.03794407 -0.06878636 -0.1057029 -0.006494776 -0.01075364 0.0002501236 0.07766067 -0.008957772 -0.03275674 -0.09416442 -0.04097001 0.07720896 0.03297773 0.03665366 -0.01142491 -0.1209398 -0.01005549 -0.1850773 -0.1026314 0.2437034 0.272503 0.05130709 -0.04057678 -0.05112792 -0.014083 0.1001807 0.06088353 -0.02026507 0.04732137 -0.07552516 -0.02073849 -0.04701353 -0.101518 -0.0869285 -0.1023831 -0.08001883 0.1036358 0.1579054 0.06790043 0.01247347 0.1541738 -0.01031242 -0.09992309 0.000168154 0.03858234 -0.0110451 0.069422 -0.00268857 -0.03610798 0.02595482 -0.04247149 0.01711084 -0.02676225 0.04278889 -0.08277673 -0.1378051 0.03063225 -0.2571493 -0.0829109 0.1455786 0.1725986 0.1494562 -0.01782314 -0.0347989 0.02027874 0.002904349 0.05431689 0.08232492 0.02071762 0.03810848 -0.1016118 0.01384201 -0.08628947 -0.08492422 -0.0129394 -0.08069972 -0.04591375 0.12468 0.007954014 -0.004517338 0.05754286 -0.03437544 -0.009139961 0.05287368 0.06125556 0.1217007 0.05640729 -0.01557078 -0.06188188 -0.01202264 0.05762146 -0.03390605 0.01347555 0.006945641 -0.0218973 -0.1066368 0.05017043 -0.2069144 -0.1153132 0.09879483 0.1407607 0.03949258 -0.03483324 -0.05692171 0.02800013 0.03880082 -0.05406983 -0.008460591 -0.09068758 -0.01168486 0.07745868 -0.06913456 -0.04769895 0.01273861 -0.05122229 -0.03825399 -0.1472584 0.0989174 0.03709723 0.005379144 0.07695732 -0.04554105 -0.1334054 0.01517574 0.05080223 0.2039984 0.002581847 -0.03695232 -0.04323796 0.0670081 0.05073387 -0.07872868 -0.0003071804 -0.05305845 -0.05827313 -0.06196946 0.007673992 -0.06402509 -0.07243671 0.07013107 0.04130665 -0.06003794 -0.01911185 -0.002799896 0.04461407 0.0611192 0.1869688 0.02865961 -0.0110612 -0.04367589 0.1882354 -0.01634117 -0.06526069 -0.02911078 -0.1296175 0.06115486 0.1017131 0.04989173 -0.08885368 0.03043761 -0.03522646 -0.08897232 -0.1579071 0.09551609 0.1529129 0.1383291 0.06922184 -0.04570366 -0.02683387 -0.01514733 0.005943779 0.02944771 0.03886072 -0.008420819 0.002632113 0.009108394 0.1461841 -0.02668546 -0.08476397 -0.05416434 -0.07183415 -0.007840574 -0.02009233 -0.003344901 -0.04934322 0.1417983 0.05468654 0.02815348 -0.03670858 0.07989174 0.04820823 0.04435471 -0.02506137 0.01514442 0.01830502 -0.003867764 0.07566488 -0.02875488 -0.06990778 -0.005264377 -0.005267565 0.03128962 -0.07614125 0.1021605 0.09492901 0.03183504 0.009890486 -0.0446742 -0.03111969 0.01167585 -0.002329819 0.02815796 0.00778758 0.09998208 -0.07707485 -0.1512279 
  -0.0475377 0.1022774 0.09328893 -0.04539757 -0.006854408 -0.02149528 0.05912251 0.04976651 0.04366698 -0.1015783 -0.02929427 -0.08777125 -0.1511607 -0.01262206 0.05804752 -0.1044576 -0.1176675 -0.1581283 0.009203665 0.1362126 -0.1320478 0.0009376256 0.05571986 0.01182697 -0.03680701 -0.1430359 -0.1286461 -0.01750851 0.07888957 0.07199606 0.02859454 0.09468215 0.07776646 -0.07082792 0.1048468 0.006232203 0.006997114 0.07894039 0.1618257 0.134462 0.006291877 0.01480403 0.09315097 0.0118044 -0.09573016 -0.02287578 0.06688333 0.0684026 -0.1138027 -0.009909894 -0.01932149 0.008507397 -0.03739938 0.0583963 0.08891939 -0.02286401 -0.05214089 -0.05805575 -0.05859009 0.08818654 -0.1149094 -0.08106927 0.05415025 0.02806329 -0.03774177 -0.04153386 -0.2171228 -0.08685132 0.0005388305 -0.03242424 -0.004394383 0.05766344 -0.07304476 -0.08589958 -0.01333912 -0.07103662 -0.07531346 -0.03659582 0.02348266 -0.03713421 0.02385813 0.04495957 0.08458802 0.05248538 -0.1041767 -0.02493867 0.04736013 -0.003670438 -0.0724079 -0.03870825 0.01921468 -0.07135625 0.05491293 0.1512947 -0.002263368 -0.01143633 -0.04513729 -0.0403783 -0.06230315 0.04354694 -0.1400833 0.04607817 0.09694926 0.05819655 -0.04219317 0.07735449 -0.05384098 -0.05530198 -0.006563516 -0.04706065 0.07664685 0.08117084 0.01226821 0.06913833 0.05606168 0.1410003 0.02173393 0.05142318 0.08233532 0.1110464 -0.027915 0.1288599 0.1004589 -0.02166161 -0.03180357 -0.1228696 0.06559434 0.07193648 -0.113794 0.07804283 0.04316543 -0.1877479 0.02277911 0.1518192 0.01177942 0.03569135 -0.07184832 -0.06151747 0.02651097 -0.04843553 -0.006069343 -0.005378636 0.03566226 0.04312542 0.07028817 -0.03470763 -0.08881027 0.009844977 -0.05050747 -0.1227725 0.2502234 0.04539469 0.101702 0.02266006 0.06971604 0.01691848 0.08784002 0.01556773 0.1174336 0.01339212 0.0483642 0.1324604 0.127582 -0.0342355 -0.1423917 0.02171762 0.0040993 -0.05438977 -0.1370334 0.1269362 0.02391787 -0.2022118 -0.01018913 0.05924404 -0.02203251 -0.03873456 -0.05676148 -0.128946 -0.04573565 0.06863847 -0.04189197 -0.01550547 0.1135159 -0.07094191 0.08308149 -0.03839622 0.01798876 0.02994806 -0.05047763 -0.01754472 0.1668824 0.03004332 -0.05501157 0.005512404 0.002083748 0.02937251 -0.002690327 -0.08697718 -0.04424591 0.007695193 0.07683672 0.01749329 0.02631311 -0.1382363 -0.1196486 0.02408543 0.03841921 -0.06289698 -0.08260401 0.1473747 0.07236873 -0.08899125 -0.1342597 0.08954437 -0.1076301 -0.07365631 -0.07751002 -0.1012864 -0.008963461 -0.03057022 -0.02048799 -0.0005908839 0.1671543 -0.05563188 0.07635049 -0.05526267 -0.1745456 0.007219357 -0.0797742 -0.04392214 0.1879805 0.02780695 -0.0425808 -0.01886659 0.05114942 0.05464448 -0.07902699 -0.1094632 -0.0790035 -0.1565497 0.08686546 0.09927868 0.06457258 -0.05785605 0.005969496 0.09677061 -0.05753064 -0.004244411 -0.1048915 0.2005121 -0.006724525 -0.1670123 -0.03773312 0.1513664 0.07141598 -0.0396909 -0.1304698 -0.2175727 -0.007461662 0.02175835 -0.05519635 0.1066325 0.1405467 0.0648523 0.009190932 0.01275734 -0.2300811 0.05745935 -0.06419142 -0.005459731 0.1991797 0.07368467 -0.02467986 0.03495139 0.131964 0.07774498 0.002815897 -0.03984635 -0.08024599 0.001422073 0.08176573 0.09558951 0.02359133 -0.06278678 0.03183042 0.1199827 0.00614909 -0.08248842 -0.09270918 0.09369584 -0.01397297 -0.1188544 0.06709901 0.2667216 0.07204325 0.0796511 -0.1065744 -0.1752441 0.09285145 0.1910547 0.1532859 0.07057581 0.2174078 0.07215085 0.052389 -0.02980862 -0.1802912 -0.1085383 0.02464266 -0.03979642 0.1657438 0.05299556 0.03331662 0.07908421 0.1688184 0.1011776 0.01122038 0.0616569 0.03441931 0.1075147 -0.1793484 0.09224274 0.1187175 0.01400083 0.09240941 0.2138013 0.08740316 -0.02518773 -0.1538215 0.1741215 -0.03964202 -0.01390623 0.1436175 0.2561461 0.1950123 0.1574229 -0.05058472 -0.1523845 0.3088648 0.3712499 0.1470214 0.1301521 0.2599179 -0.003902103 0.06992461 -0.03268821 -0.1315021 0.0326061 0.09524471 0.1282121 0.1559029 0.06889953 0.06621678 0.02580373 0.0667015 0.02667173 -0.1100499 -0.05605083 -0.05515148 -0.0806874 -0.3932956 -0.2057318 -0.0799531 -0.1805345 -0.02432215 0.1162697 0.01109772 -0.07436568 -0.03915206 0.03665371 -0.05740019 -0.0417578 0.1201434 0.1634479 0.2202268 0.07351638 -0.06429531 -0.1361172 0.2384872 0.3079378 0.08591349 -0.09179837 0.01549486 -0.09284005 -0.1463982 -0.1584193 -0.2033792 -0.1598367 0.025638 -0.03720429 -0.008149884 -0.09194282 -0.1923382 -0.1947847 -0.0902918 -0.1647584 -0.286839 -0.3089339 -0.247914 -0.26291 -0.4624 -0.1862204 -0.1258111 -0.1460442 -0.09238196 -0.0593335 0.049125 -0.08898267 -0.09719541 0.07197756 0.02016282 -0.004640913 0.128146 0.2400341 0.1617591 0.1754092 -0.1015692 0.03576319 0.3545623 0.4946508 0.1640872 -0.0217166 0.1263988 -0.04196733 0.07402931 -0.01556573 -0.1129646 0.01256203 0.2192043 0.0840786 0.2147492 0.06147994 -0.03516998 0.05429113 0.1060213 0.002750155 -0.1677971 -0.0984228 -0.1272216 -0.213377 
  0.00101071 -0.1353943 -0.111916 -0.03725023 -0.05370755 -0.05347138 -0.1591441 -0.05296012 0.03347076 -0.1628924 -0.1669702 -0.2116015 -0.3123068 -0.2234433 -0.1738368 -0.1095446 -0.07273073 0.1410365 0.2133388 0.07245167 0.2403918 0.1233689 0.0142225 0.07125875 -0.01844477 -0.1901579 0.02526207 -0.1316343 -0.2661872 0.1026543 0.1500599 -0.01547317 -0.09657416 0.03215346 -0.05623372 0.0834319 0.03029194 -0.1009317 0.006713315 -0.02402619 0.03873703 -0.05909868 -0.0295232 -0.05358077 -0.1011429 0.03881716 0.02343824 -0.002963418 0.1353753 -0.09311456 -0.1118887 -0.1252834 -0.2647721 -0.1174845 -0.07923105 -0.03766068 0.024359 0.1518912 0.1739109 0.187741 0.1694396 0.1414759 0.1431964 0.04462507 -0.09720773 -0.1296697 -0.1318667 0.0004128309 -0.1446655 0.1368246 0.1090421 -0.05479741 -0.03223154 0.04099358 0.03585512 0.02728642 0.07506473 -0.023371 0.03543957 -0.07290677 0.06455171 0.06227566 0.06943785 -0.08354667 -0.1195401 -0.00234665 0.008813513 -0.0007483817 0.05694178 -0.06861843 -0.1489601 -0.1946032 -0.3498949 -0.05036187 -0.03340306 -0.04030401 0.0547143 0.2546661 0.1510659 0.1698391 0.1412282 0.07130126 0.06306207 0.03987164 -0.0569304 -0.1591103 -0.07807203 0.001372824 -0.1847943 0.1753894 0.04024478 -0.05761009 -0.06268821 0.01241297 0.07761203 0.1056777 -0.0064583 -0.01469794 0.01060994 -0.1527812 -0.01249407 0.05292816 0.0564186 -0.05937281 -0.07828572 0.03402744 -0.0007170522 0.02928877 0.1126475 -0.07023135 -0.0808396 -0.1884229 -0.07124647 0.01962708 0.08058087 0.08492309 0.1561937 0.1761508 0.03075592 0.1557627 0.03316673 0.1247223 0.02424207 0.03175376 -0.06555895 -0.002721046 0.09495883 -0.05743913 -0.06841362 0.1473699 0.03441985 -0.01610466 -0.07902748 -0.03365156 0.07649279 -0.06886145 0.0007373383 -0.03752973 -0.02088719 -0.07743741 -0.07063313 0.01008973 -0.01476544 0.03025677 -0.09208822 -0.0007199798 0.001504313 0.1570779 0.06640756 -0.09229439 -0.09828845 -0.09969047 0.03169611 0.1416832 0.1058548 0.177351 0.2513407 0.1108843 0.05021173 -0.009131239 -0.03433659 -0.06224436 -0.002416978 0.1156209 -0.006200416 0.006304598 0.1454119 0.05933563 0.01992191 -0.001092352 0.08492274 0.07365923 -0.05248304 -0.06812657 -0.04159615 -0.0009889106 -0.07570639 -0.1482714 0.02545019 -0.05426909 -0.1422741 0.01247397 -0.03959315 -0.03587328 -0.1395957 0.08967377 0.07597636 0.178831 0.09676293 -0.02133845 -0.08457439 0.06140109 0.1203075 0.250103 0.283986 0.2416346 0.262305 0.07672516 -0.1497938 -0.09487573 -0.09078687 -0.1945654 0.003495118 0.1021698 0.04356276 0.2474465 0.2882501 0.2208712 0.02641654 0.109155 0.06901352 0.0008205933 -0.09517556 -0.01614469 -0.1337471 0.05730075 0.02989865 -0.08560707 -0.05418589 -0.06116403 -0.1986109 0.02804185 -0.02205315 0.001342502 -0.03688747 0.07001584 0.06618484 0.117926 0.1358969 -0.03968466 -0.02695909 0.0832887 0.1718585 0.236752 0.2865349 0.1877492 0.2644136 -0.08074149 -0.2291673 -0.2437091 -0.2985911 -0.1969399 -0.1076645 0.03599095 0.1090057 0.3121343 0.3864991 0.2204875 0.05315191 0.08120019 0.03793388 0.01028113 -0.03108894 0.04062548 -0.05740184 0.09861153 0.03949638 -0.1404613 0.005649455 -0.1028911 -0.1804768 -0.001910141 0.09679098 0.03382078 -0.03823715 0.07926931 0.05095173 0.06915814 0.09916987 -0.01541919 -0.006835117 0.03285174 0.1470792 0.1352911 0.1661352 0.06482479 0.2043369 -0.1990365 -0.153343 -0.352513 -0.3260684 -0.2268904 -0.1343074 0.03091777 0.06072454 0.32572 0.3322678 0.1941125 0.04616328 0.02773347 0.01723671 -0.004905317 -0.01349069 -0.0163 0.06042272 0.07280954 0.01709755 0.07392634 -0.03337361 -0.05577472 -0.1489187 0.04710882 0.13749 -0.06100559 0.00901953 0.1160561 0.01298048 0.0962288 0.005499531 -0.04807175 -0.08510513 0.03606435 0.1253978 0.04955892 0.009361025 0.02067825 0.005997418 -0.304789 -0.2823647 -0.3317101 -0.2559464 -0.1363113 -0.247029 -0.0974803 0.1120205 0.2240417 0.2327542 0.1678337 0.05050332 -0.04936898 0.000823106 -0.0209958 -0.01186203 0.1164777 0.02345169 0.1335804 0.06428403 0.06794544 0.06240491 -0.1067151 -0.03353814 0.04741507 0.1151619 0.005528774 -0.01101156 0.1948698 0.02937117 0.02141971 0.1074071 -0.02529697 -0.01970215 0.003671021 0.0290918 -0.07197957 -0.1345306 -0.06016961 -0.1658626 -0.2689857 -0.2333004 -0.2302756 -0.1356798 0.019396 -0.1386599 -0.008226484 0.007909133 0.2236734 0.1779022 -0.05392231 0.1303445 0.0225706 -0.07200219 -0.05740214 -0.007935767 -0.005792615 0.02589653 0.06942801 0.05910061 -0.01573375 -0.0645781 -0.1595478 -0.04849057 0.05768261 0.07146825 0.02858673 -0.05523978 0.09156763 0.0535522 0.05086328 0.03295102 0.006489106 0.07131474 0.0713727 -0.01906586 -0.08246382 -0.1399042 -0.1942426 -0.167229 -0.3533916 -0.1538803 -0.1262498 -0.03134351 -0.004192292 -0.1498154 -0.02321241 -0.03398028 0.037209 -0.04045884 0.02122773 -0.03519618 -0.1069688 -0.00431815 -0.1213641 -0.05800404 -0.07166533 0.0006706145 0.0313635 0.08157735 0.06911994 -0.00632958 -0.190852 
  -0.1790117 0.119743 -0.1040265 -0.2296395 -0.2105354 -0.06970406 0.00454785 -0.09757201 0.1065355 -0.1635264 -0.2191862 -0.1221782 -0.01659871 0.09017705 0.05175073 -0.02183647 -0.04933963 0.0745488 0.1323647 0.3231876 0.2096757 0.007121773 0.1532708 0.08589067 0.03156111 0.07369532 0.1036624 0.2254536 0.1239912 0.09261058 0.07349744 0.03661866 0.01010484 -0.007493203 0.1019484 -0.2710845 -0.01535881 -0.1852268 -0.1557215 -0.06703734 -0.1390288 0.07111805 -0.0191854 -0.1491576 -0.1582358 -0.1113809 -0.150954 -0.04885477 -0.06825105 -0.06596873 -0.1586264 -0.1776185 -0.08436946 0.09083812 0.004493278 -0.06235125 -0.05599413 -0.05737907 -0.009777722 0.0751731 0.0361085 -0.07503186 0.04027105 0.1383134 0.07115199 0.07231554 0.1579829 0.0840925 -0.03197045 0.03479242 0.01943105 -0.02985297 0.03132633 0.0185563 0.0599553 -0.01352651 -0.1514504 -0.01345863 -0.1264549 -0.03394821 0.02431918 0.09698222 -0.001545038 -0.03661511 -0.09283902 -0.1189577 -0.013178 -0.02179983 0.00981971 -0.08181621 -0.07620778 -0.05434361 0.03594654 0.1674176 0.05693217 0.1411143 0.02033931 0.0174226 -0.03304719 0.04732786 -0.0202603 -0.1400832 0.2009757 0.1712436 0.1306683 0.1223397 0.13118 0.1499647 0.0423856 0.02286741 -0.02419248 -0.01704613 -0.02605868 0.1002501 0.002204048 -0.1002247 -0.05655412 -0.05920306 -0.1865183 0.1032645 0.06231581 -0.007847765 -0.002852092 -0.1594569 -0.1217206 -0.1125192 -0.06460682 0.034089 0.07608207 -0.09923656 -0.06031007 0.0003044666 0.03709252 0.004942677 0.00419226 0.2055568 0.09813532 0.01394698 -0.05800519 -0.03771636 2.393797e-05 -0.08639209 -0.02087762 0.104529 0.1398233 0.08065898 0.04333625 0.07991901 0.0527341 -0.04715284 -0.09028716 0.02752306 0.05470754 -0.009417731 0.02964554 -0.122884 0.03683992 -0.1305799 -0.06552345 0.05056693 0.2258009 0.05733787 -0.02671193 -0.07349981 -0.1742872 -0.06800012 0.02641394 0.06303295 0.01700448 0.03634242 0.04755688 0.06002454 0.08081918 0.09576197 0.1062825 0.113354 -0.0140161 0.06934845 0.009285936 -0.04579204 -0.01086611 -0.112088 -0.06979783 -0.04609623 -0.02150035 0.03704521 -0.02670591 0.04041982 -0.04697752 -0.08057509 -0.0541963 0.003176739 0.02049833 0.002360518 -0.06043418 -0.093785 -0.004169332 -0.01999803 -0.1087144 0.1289021 0.01165041 -0.05973624 -0.006347151 -0.1003363 -0.03310761 -0.03409383 0.07290139 -0.001356314 0.0427324 0.03341139 0.07878187 0.1175202 0.09715074 0.04865458 0.01321658 0.1260632 0.07087737 0.01147611 0.00729785 -0.06831962 -0.03430637 -0.1180495 -0.1302501 -0.1139848 -0.001005712 -0.02422096 -0.08105023 -0.03950977 -0.1350858 -0.1426938 -0.07725284 -0.003780111 -0.002858412 0.02275356 0.1262294 -0.04255518 -0.06009628 0.06995972 -0.1787347 0.09126644 -0.1623488 -0.1610878 -0.1060247 -0.2579916 -0.00779143 -0.07317112 0.07750615 -0.02393069 -0.05043142 0.05152411 0.0596523 -0.1105218 0.01193521 -0.03191773 -0.08274638 -0.002179219 -0.04591731 0.03610689 -0.001221786 -0.05269865 0.006231707 -0.05293676 -0.07717296 -0.05941392 -0.1509761 -0.1440535 -0.1322539 -0.1723122 -0.1887507 -0.1695415 -0.03415914 -0.1291068 0.02810712 0.1389664 0.1041612 -0.06500811 0.08436085 0.05381311 -0.01444349 0.06062417 -0.1702837 -0.2249297 -0.2041044 -0.2984872 -0.0658373 -0.1292462 -0.07975274 0.08794397 -0.02360292 0.07717238 -0.01260996 -0.0003419671 -0.1141682 -0.1505999 -0.2207229 -0.01707523 -0.09154297 -0.009881234 -0.05581579 -0.02101548 0.008396233 0.1410553 0.01320337 -0.02862565 0.02778801 -0.1400741 -0.09435639 -0.1511484 -0.1527028 -0.0344761 -0.1077249 0.04056835 -0.009483153 0.092515 0.09765571 0.07441655 0.1941495 0.04413214 0.07238568 0.1538784 0.1071811 -0.2433535 -0.2167584 -0.345772 -0.2324938 -0.2276118 -0.0657181 -0.136955 -0.06596925 -0.04278184 -0.09370895 -0.1544942 -0.2487408 -0.3860653 -0.3295259 -0.1846352 -0.1584287 -0.06268625 -0.1231748 -0.2191431 0.02725861 -0.02642236 0.01232926 -0.2135888 -0.1462178 -0.1957193 -0.2529136 -0.2169858 -0.2435311 -0.2098335 -0.045552 -0.02870167 0.09159295 0.03536439 0.1121669 0.06518016 0.1039103 0.121011 0.01537337 0.09424362 0.1580885 0.01141407 0.01955721 0.1084382 -0.03080767 0.009711901 -0.00828995 -0.004468137 0.1236733 0.1318011 0.0763055 -0.02617001 -0.1534354 -0.1950518 -0.1958109 -0.1024072 -0.08379405 0.07186794 -0.08889446 -0.1325674 -0.03826946 0.07642232 0.04736876 -0.0170882 -0.08503851 -0.01070149 -0.09131798 -0.1393149 -0.03809793 -0.06659327 -0.1037069 -0.1244628 -0.1046115 -0.1422679 -0.07378656 -0.1556716 -0.1715598 -0.198923 -0.1770353 -0.03878306 0.1971798 0.2437141 0.5528842 0.6717512 0.572299 0.5864045 0.3722615 0.2612527 0.2430838 0.3572246 0.336997 0.2945658 0.1743757 0.0656351 0.03538614 0.2028643 0.273538 0.2099321 0.1896619 0.04713376 0.1345699 0.2706097 0.2332406 0.1953009 0.2582723 0.2474403 0.1680579 0.2036598 0.2755754 0.2741254 0.1127754 0.1827737 0.2099643 0.2356387 0.203268 0.1285787 0.02259629 0.2219607 0.1011339 0.396288 
  -0.03805586 0.04449562 -0.02602128 0.06253795 -0.02563379 -0.1026048 0.02921318 0.01442669 -0.05969867 -0.02804393 0.06917338 -0.07313713 -0.06108738 -0.02246603 0.007126616 -0.03530325 0.0757921 0.04350584 0.04462615 -0.07905974 -0.00352127 -0.02546664 -0.05888934 -0.04659944 0.02614714 0.09683342 -0.1061395 -0.005322784 0.001714647 0.05855862 -0.001322794 0.04129244 0.01949495 0.09004291 0.0125119 -0.03708325 0.03933236 0.1101708 -0.009963612 -0.05717083 -0.04072281 -0.02826834 -0.07755975 0.08248305 -0.05312256 -0.1007621 -0.004580942 0.01290542 0.01169011 0.0291917 -0.1007641 -0.02626534 0.04960154 -0.01107418 0.05656185 -0.01854583 -0.0179977 0.01204755 0.07389197 -0.001512792 0.03571701 -0.039998 0.03911475 -0.0119617 0.03690626 0.03491218 -0.01405731 0.06011346 0.04419142 0.06139982 0.05054671 0.07686726 -0.01801872 0.01647145 0.03591449 -0.04570688 -0.009379042 -0.06782288 0.037739 -0.09465507 0.02686187 -0.03334598 0.05168304 -0.07334065 -0.09234385 -0.01750676 0.02388312 -0.05635815 0.03525577 0.00264672 0.119729 0.1011517 0.02857977 -0.01058688 0.130762 0.04655753 0.03915429 0.07178654 -0.01419288 0.01508189 0.01972728 0.02125397 0.01217439 0.01019991 0.002851668 0.06290976 -0.05088311 0.01056093 -0.02589072 0.06553494 0.03841128 -0.01516774 0.07839541 0.003723377 0.02533544 -0.01115097 0.03457155 -0.03023771 -0.01237732 -0.0275758 -0.02534238 0.01558513 -0.006567582 0.05884914 -0.07286263 0.007471809 0.006523657 -0.0481842 0.02051603 0.00254315 -0.00249365 -0.04958481 -0.08071929 0.1416199 0.0438282 -0.002376116 -0.03397942 0.1315965 -0.06662131 -0.1375882 0.08672436 0.008349577 0.02304446 -0.0695611 0.02515088 0.02910515 -0.007502322 0.007460241 -0.03701724 -0.02678694 -0.02727786 0.0005802346 0.08984256 -0.06026018 -0.01082994 -0.004638581 -0.00351297 0.03234765 0.05421543 0.04436059 0.002190174 -0.02760074 0.03652528 -0.03769721 0.02916404 -0.01895379 0.06150957 0.04100656 0.005337191 -0.07804624 0.06276386 -0.04573724 -0.02754773 -0.09833747 -0.04923803 -0.06789653 0.09835758 0.01727085 0.05832416 0.03453898 0.09799758 0.05676641 0.003753603 0.04352646 0.05165817 -0.008067221 -0.1066791 -0.1216308 0.002892769 -0.001021418 -0.014517 0.08564389 0.02787915 -0.1144131 0.01126126 -0.06853645 -0.02351035 -0.03084132 0.05347883 0.03429409 0.003157452 0.03804237 0.06409011 0.01008471 -0.1072747 0.05283226 0.01555375 0.005809291 0.007276054 -0.003092007 -0.02383332 -0.0195467 0.08846099 -0.1364145 -0.05456149 0.03405196 -0.02571869 0.07060062 0.06070323 -0.00119406 -0.01437676 -0.03910255 0.1367131 0.05772095 -0.02877028 -0.08438003 0.03784589 0.01127082 0.05258086 -0.04998943 0.02587018 0.04986727 0.01097868 -0.04651896 0.04530953 0.04073243 -0.0135605 -0.04624317 0.02889377 -0.09313805 -0.0761231 0.009819573 0.04380204 0.02993559 0.0198907 0.09143403 -0.07627667 0.04457223 -0.06384921 0.06655078 0.0574489 -0.006778697 -0.02501939 -0.1057054 -0.04783044 0.01757306 0.01381034 -0.01730305 0.02301843 -0.06437282 -0.1017313 0.05194889 0.09550822 -0.0691707 0.02609647 -0.00826394 -0.01811592 0.01240533 -0.008868588 -0.05698987 -0.01739255 0.06880414 0.05579354 -0.05526582 -0.0004710974 0.01655582 -0.0954129 -0.008734828 -0.04184934 -0.01767853 0.02719172 0.0650579 0.05862072 0.01579746 0.0493912 -0.0602884 0.0122302 0.07440769 -0.04806307 0.01235621 -0.06751565 -0.08159937 -0.004289508 -0.03187962 -0.05696676 -0.04846999 -0.04169521 -0.04718855 -0.05793428 0.09726819 -0.0114633 0.005266807 -0.05151157 0.05779529 0.06041813 -0.09224277 -0.01408755 -0.02446249 0.04482895 0.03037975 0.01691973 -0.04547011 -0.07168049 0.01756169 -0.001893709 -0.02483627 -0.01009623 0.01268913 -0.01786464 0.008120704 0.09352554 -0.04324171 0.07393364 0.005329513 -0.01331399 -0.02792264 -0.07822009 -0.0009618857 0.00750751 0.04150234 -0.01909057 -0.04647025 -0.0400891 -0.06551643 0.002333621 0.02313807 -0.01482466 -0.05457353 0.1097871 0.1302782 0.02722098 -0.02595215 -0.07107218 0.008597958 0.06114948 -0.09558079 -0.007408416 -0.03791326 0.03446585 0.1318561 -0.06403389 -0.04755558 0.01106148 0.0228702 0.08074316 -0.1436393 -0.04028806 0.08782351 -0.1050626 -0.05602377 -0.04040306 0.08728831 0.1041229 -0.02415987 -0.1146129 -0.05752758 0.05000002 0.02502456 0.0139324 -0.08213522 0.03345724 -0.01786828 0.03240072 0.0712906 -0.04874399 0.03301397 0.06460976 0.04545669 0.004319573 0.0184937 0.07757557 -0.0886769 0.09202459 -0.03468023 -0.01513822 -0.03820743 -0.01910296 -0.01817205 -0.01932167 -0.01742522 -0.01585885 0.05632853 -0.08204394 0.07444727 -0.05393772 -0.03592468 0.01856146 -0.07296488 -0.01502498 0.03564913 0.04623924 0.07323917 0.0074989 0.03919205 -0.0007640306 -0.05321886 0.04573971 -0.004490481 -0.05625895 0.0260507 0.05870572 -0.04578948 -0.004677218 0.076323 -0.0185815 -0.04116843 0.1068916 -0.04544285 -0.01855655 0.04985693 0.02219886 0.03863073 0.03924425 -0.01764765 -0.08165018 -0.03895839 -0.008729534 -0.01198168 0.02454008 -0.06490048 -0.002019073 -0.006773476 -0.05284743 -0.05260858 0.01723144 -0.05607604 0.1088849 0.01903675 -0.03695701 0.03289346 
  -0.177032 -0.1787793 -0.1673631 -0.05740791 -0.1847793 -0.1508019 -0.293812 -0.02659495 0.1043943 0.1991277 0.07951805 0.1548684 0.1177298 0.2238412 0.173104 0.2588295 0.278177 0.05845564 0.009328602 0.04731243 -0.02501992 -0.197483 0.01996945 0.01083075 -0.1071144 -0.2224898 -0.1858406 -0.03385719 0.007452355 -0.1760243 -0.1210636 0.006329929 -0.02792441 -0.1595583 -0.02169761 0.06028983 -0.1498084 -0.1722548 -0.1150096 0.08150906 -0.1022594 0.04509418 -0.1006678 -0.01857403 -0.107218 -0.131308 -0.2484205 -0.0572262 0.0735473 0.07776085 0.09099747 0.01697781 0.0971897 0.2397638 0.1530084 0.1952671 0.3129832 -0.08737247 -0.131105 0.02593826 -0.06956122 -0.1156547 0.04316953 -0.08464402 -0.0392764 -0.2191544 -0.151585 0.0239962 -0.03936021 -0.06318 0.04052275 0.02892747 0.02004202 -0.06978626 0.03582362 0.0625709 -0.08025788 -0.08957367 -0.05977974 0.1558184 0.1158052 0.06898594 -0.06139638 -0.1512543 -0.08881951 -0.1918955 -0.1865552 -0.09628503 -0.0254619 0.02745053 0.06345474 0.128579 0.1358984 0.2075447 0.1565288 0.2125701 0.3372554 0.08404142 -0.03524328 0.08169571 -0.05572898 -0.1211125 -0.1022028 -0.07838402 -0.1512632 -0.3188412 -0.1429994 -0.05018535 -0.01947246 -0.09992135 -0.03998141 0.02750728 0.03798519 0.0293636 0.01192406 0.07404152 0.01199952 -0.01582808 -0.002495932 0.1016301 0.1602009 0.1089411 -0.07456034 -0.02021668 -0.09614564 -0.1026736 -0.1671206 -0.1847954 -0.04623877 -0.08584899 0.05042546 0.1000523 0.05321236 0.0808621 0.06827339 0.108336 0.286018 0.1550103 0.0589678 0.03595799 0.04276115 -0.08664974 -0.05559203 -0.2020703 -0.1588003 -0.1441182 -0.2594061 -0.01683788 0.02087809 -0.1388729 0.03277827 0.004146631 0.03896604 0.02848027 -0.03063557 0.08594342 -0.06801107 0.0521966 -0.03824414 0.1152652 0.1719384 0.03987128 0.066415 -0.07926731 -0.2427791 -0.1197179 -0.1367372 -0.1067285 -0.08327644 -0.01544647 0.1257546 0.07981597 0.02064099 0.0679826 0.008903703 0.223155 0.3717464 0.1069261 0.06857227 0.09615541 -0.001812099 -0.1075368 0.0254731 -0.1662279 -0.1902267 -0.254364 -0.2220151 -0.0672631 -0.01909756 0.03779132 -0.05657202 -0.05684543 0.07007701 0.04387021 0.045941 0.1500445 0.01878256 0.0738843 -0.004760299 0.07494958 0.2195896 0.05880963 -0.02129922 -0.07879604 -0.1212961 -0.1817428 -0.1656685 -0.02478327 -0.0155406 -0.1614181 -0.05230907 0.005810817 0.03243629 0.01911262 0.06086672 0.1203601 0.2954086 0.2010576 0.1178144 0.1425087 0.1436064 0.02206782 0.01099963 -0.05707585 -0.1711195 -0.1516293 -0.2202514 -0.1275155 -0.05986058 0.002149513 -0.09515829 -0.03661394 0.04522931 0.09376518 0.04881409 0.1398673 -0.02518797 0.01722719 0.0009511199 0.09751022 0.1869407 -0.01578386 0.05479547 -0.03245262 -0.1819113 -0.08817796 -0.06991266 -0.05090313 -0.03859325 -0.03508342 0.07895233 -0.02699495 0.009725714 0.09773747 0.192076 0.07710513 0.2898033 0.1716767 0.1669449 0.1523263 0.08896925 -0.02538311 0.05615726 -0.1520421 -0.2232014 -0.1825195 -0.2865314 -0.1214204 -0.01025159 -0.04664947 0.05693925 -0.01936211 0.05959095 -0.04616556 0.1167704 -0.03668134 -0.010899 -0.03030067 -0.004061923 -0.007221302 0.2680654 -0.05481861 0.05700974 0.0715688 -0.1482673 -0.02241846 -0.06862624 -0.004526438 -0.03084327 -0.06691041 0.04565545 -0.03376677 -0.05483605 0.0008614045 0.1263265 0.1077448 0.2703055 0.1492828 0.07752457 0.1203576 0.1460633 -0.02038633 -0.01149833 -0.1301944 -0.1629257 -0.1852549 -0.158964 -0.03780552 0.01090592 -0.08735351 -0.08085711 -0.02459229 0.0283894 0.09023929 -0.1628372 0.04724291 -0.0782662 0.04032672 -0.08233622 0.1220315 0.05409734 -0.03414272 -0.03670596 -0.003049095 -0.07658906 0.1171538 2.879185e-05 -0.03598069 0.03609756 -0.05803505 0.04656361 -0.04752802 -0.0437321 0.04473834 0.08545128 0.03410728 0.2008826 0.1356659 0.07292843 0.09664703 0.09873309 -0.004179558 0.008051844 0.01024062 -0.1199856 -0.1340724 -0.07991467 -0.1176395 0.07819776 0.06759543 -0.03830945 -0.03721794 0.01665656 0.02091693 0.00812585 -0.01971894 -0.1254996 0.004214995 0.04691905 0.00160008 -0.08029887 -0.1470135 -0.108518 0.08614591 -0.04793303 0.009436605 0.08260759 0.09406649 0.07939089 -0.03226938 -0.01547009 -0.1395028 -0.05153645 -0.06455301 -0.01323219 -0.05197376 0.05300146 -0.01679724 0.0962233 0.01304691 -0.03343865 0.003549813 0.07613651 -0.1332003 -0.03679126 -0.02004593 0.01734374 0.04412989 0.05477195 -0.03213625 -0.05259479 -0.003357469 0.06089728 0.003862897 -0.08941182 0.06758191 -0.08431362 -0.08407932 0.0595398 0.05382571 0.06102227 -0.08724342 0.01911188 0.07117288 0.1076138 0.1781562 0.2484594 0.1999493 0.2080649 -0.01944548 -0.009461083 -0.04748482 -0.06252122 0.04513635 -0.09852739 -0.1224328 0.0006085004 -0.1244419 -0.04898752 0.01457711 -0.01652249 -0.01723786 0.02104051 0.02659006 0.05929433 0.1389563 0.1593882 0.1040096 0.1091536 0.1224281 0.08012369 0.09513662 0.1670378 -0.00605299 0.07191402 0.1008221 0.1344069 0.1444615 0.1189884 0.2547967 
  0.1126755 0.004188487 0.0734356 0.2945959 0.02460399 0.07553106 -0.04688628 0.138493 0.02055311 0.0205407 0.06670507 0.06678606 -0.1928467 -0.1652413 -0.03931764 0.08078031 0.04281475 0.06397378 0.0626114 0.008443358 -0.009430607 0.0750473 -0.0681508 0.03400898 -0.03048215 -0.008188216 0.07447378 -0.04483639 -0.04013117 -0.1252005 0.03178408 0.06322707 0.07903104 -0.02554782 -0.004785034 -0.09422809 -0.01476558 -0.04692657 -0.1419292 -0.2689416 0.02208546 -0.00930306 0.141948 0.1772263 -0.05237438 0.07399593 -0.047232 -0.02960541 -0.04560864 0.0007500761 -0.01386487 0.01438143 -0.03508139 0.004487502 -0.0765037 0.1389818 -0.01228434 0.0323078 0.0005751313 -0.01518851 -0.0650968 0.04324627 -0.03037618 -0.01531453 0.04551935 0.01082497 0.01847297 -0.01661104 -0.071707 -0.04177836 0.01281638 0.05823144 -0.03093046 -0.06407418 -0.02747392 -0.0906427 -0.02795945 0.0849623 -0.008526532 -0.1433425 0.0588982 -0.06606645 0.04138244 0.1388049 0.03397882 -0.06478041 -0.0634276 0.07815107 0.05251244 -0.04608028 0.01181879 0.04983355 -0.1063683 -0.1292933 -0.03385358 0.06159497 0.0151975 -0.005365981 -0.06124249 -0.1189585 -0.03187161 0.003464751 -0.03762525 0.05307443 0.06839415 -0.01056593 -0.01099593 -0.002781144 -0.04688513 -0.02928336 -0.01045079 -0.04247241 0.1115463 0.01895707 0.04077741 0.009508777 -0.02605655 0.08731832 -0.02164551 0.02917701 0.1495054 0.04148481 0.1771219 0.03058429 0.03649268 -0.03329634 -0.02812004 0.008480761 0.01959077 -0.01839238 -0.03100635 0.04659628 0.03154665 -0.04899904 0.05734582 -0.1233882 0.1024035 -0.04076406 0.0005846414 -0.1216004 -0.05133575 0.02944372 -0.1445378 0.07415333 -0.08688831 0.07612471 -0.1390746 -0.02305192 -0.008980471 0.04113769 0.05146155 0.03798705 0.1163894 -0.0693019 0.01120994 -0.007086349 -0.01526576 0.06367929 -0.006556508 -0.1283744 0.07422379 0.07543362 -0.04862263 0.0683252 -0.02477196 -0.09866636 -0.03399037 0.03635708 -0.001314857 0.0201855 -0.0154371 -0.05314613 -0.03157038 -0.06529962 0.01571707 0.02352801 -0.03337083 -0.1728451 -0.08181716 -0.1039738 -0.01574714 0.02351226 -0.06016033 0.03569456 0.06350455 -0.1367135 -0.01057582 0.1081153 0.05234573 0.06287574 0.1159081 -0.05278638 0.06182029 -0.01113645 -0.005209821 -0.01449118 0.06859214 0.0706974 -0.05126221 -0.00954407 0.1008262 0.007934993 -0.01788053 0.01315129 -0.01592989 -0.0948943 -0.01590898 0.06655822 0.1112 0.05420217 -0.01962801 0.006610248 -0.01109666 -0.028301 -0.06969517 0.0707008 0.03163225 0.01358796 0.01536605 -0.1144006 0.01186659 0.02998707 0.1061607 0.1186235 0.05261332 0.09298176 0.1132501 0.04627068 -0.02489233 -0.00482549 0.001171217 -0.03690473 0.136751 -0.02319308 -0.001666959 -0.02660762 0.04618347 0.08292284 -0.05351324 -0.02063104 0.1610841 0.1405362 0.002916655 0.06824013 -0.01872293 -0.1810763 -0.04425349 0.1085337 0.09589528 0.1104915 0.02850776 0.01890762 -0.02111826 -0.01403653 0.02949329 0.05986915 -0.05793122 0.0001485581 0.07016876 0.004896558 0.05419237 -0.003359321 -0.05660271 0.01683752 0.01211666 0.1196745 -0.00697304 0.03898811 0.1484839 4.073171e-05 0.07260483 -0.009934912 0.173623 0.01470855 0.07542748 0.03109128 0.03648775 0.08186414 0.09545597 -0.05747409 0.1479273 0.07971972 0.06199843 0.0796141 -0.03150722 0.01477527 -0.02001975 0.1574396 0.2444111 0.1518044 0.005774474 0.1420553 0.1526892 -0.02655805 0.0060739 0.04279724 0.03952907 -0.03391088 -0.09522104 0.05702923 0.02216863 0.1237075 0.06512298 0.01805873 0.03023415 0.1045143 0.1346583 0.07604099 0.1080157 0.03176757 0.0590389 0.01779278 0.2121986 0.04323553 -0.001492863 -0.0314086 0.09586618 0.1198891 0.04973254 0.02179086 0.1073475 -0.0291484 0.07490043 0.09235002 -0.06657878 -0.0321076 -0.05489228 0.05203337 0.1609921 0.1144003 0.08219209 0.13054 0.1047585 -0.0271711 0.04950964 0.02480033 0.05369769 -0.04099149 -0.0296331 0.0525372 0.002797149 0.1287454 0.03405412 0.06373992 0.04865691 0.07264621 0.08706029 0.1220387 -0.05824806 0.04535855 -0.01787828 0.05169765 0.07707826 0.06057708 0.04060262 -0.008262723 0.1675587 -0.03278661 -0.08185698 0.0727032 0.1214859 -0.002371934 0.01508317 0.2819531 0.04015402 0.002072055 -0.1107445 0.05893355 0.03888602 -0.07621255 0.0009598248 0.05263929 0.1355203 -0.03068371 0.04434158 0.06716434 0.04413266 -0.03712182 -0.006863772 -0.06758159 -0.03333467 0.008574414 -0.02960442 0.02883611 0.06403913 -0.008301803 0.1410009 -0.01017564 -0.04594895 -0.04397718 0.01847187 0.03170243 0.01399382 -0.1722338 -0.02892138 0.02089084 0.03539972 -0.0126053 -0.04948653 -0.07311664 -0.1237614 0.02388108 0.1033619 0.3692086 0.1969434 0.1572839 0.03326926 0.04422338 0.2143634 0.08713487 0.1111971 0.03953008 0.06882082 0.01537198 0.00773841 0.0815652 0.0001232744 -0.07394436 -0.1440803 -0.121006 -0.0546643 -0.1396255 -0.10901 -0.1016191 0.006817542 0.06256177 0.1115409 0.03552709 -0.1445961 -0.07753973 0.008112693 -0.1359379 -0.0500128 -0.02526681 -0.1501017 -0.1016404 -0.09107029 -0.06895427 -0.175332 -0.2039451 
  -0.1026508 -0.05696795 -0.1103959 -0.1553907 -0.09917511 -0.01318442 0.1141012 0.02261615 0.2436075 -0.02534705 0.08964508 0.07636572 0.03863012 0.1141667 0.01521869 0.1524598 0.09667474 0.008384323 0.1619288 0.1939799 0.1882122 -0.154742 -0.05537227 -0.05217201 -0.1461737 -0.08426348 -0.1367607 -0.02791901 0.03030677 0.1217919 0.1989933 -0.1587524 -0.03538813 0.01423254 0.1162872 0.01779423 0.05860937 0.07552779 -0.0882872 -0.04021635 -0.1301704 -0.1403183 -0.1204245 -0.008048673 -0.07246424 0.07836337 -0.01430363 -0.05723701 -0.0550254 0.03703696 -0.04204638 -0.04290427 0.05772296 -0.05450416 -0.04209051 0.1230926 0.04984616 -0.02002857 -0.04366193 -0.06364996 -0.04862342 -0.1474612 -0.1368177 -0.1216905 -0.2179941 -0.389984 -0.220822 -0.1022488 -0.1158774 0.05145561 -0.01989903 -0.2591522 -0.09620795 -0.1112163 -0.04835742 0.01795791 0.002173403 -0.03933483 -0.1107692 -0.1064132 -0.1367349 0.01095401 -0.04011419 0.1090904 0.1379222 0.06948549 0.0375468 -0.1216649 0.02179824 0.03650019 0.01362652 0.1307106 0.05057613 0.05658604 0.04214406 0.06920451 0.04997199 -0.1325199 0.003089901 -0.004995434 -0.08450065 -0.1465203 -0.1031848 -0.1636171 -0.2776131 -0.2435144 -0.3507718 -0.206251 -0.04734811 -0.02731187 -0.08075156 -0.1430477 -0.1270545 -0.05064256 -0.02959847 -0.04589449 -0.1383664 0.03838592 -0.1855475 -0.1152128 -0.03680653 0.03171485 -0.03219542 0.1064117 0.1621507 0.1227447 0.06500555 -0.0006550199 0.1135325 0.1881819 0.1265623 0.1307447 0.139277 -0.003981172 0.02486213 0.05687213 0.03423439 -0.08239193 -0.03007316 -0.1576849 0.004717083 -0.01500021 -0.05817122 -0.08029789 -0.1366754 -0.1206656 -0.09817015 -0.07581836 0.08334199 -0.03038763 0.05227995 -0.1479703 -0.02576583 -0.01679843 -0.006789952 -0.04760816 -0.1301025 0.06532618 -0.1693132 -0.136575 -0.08973225 -0.01516472 -0.06802014 0.1204527 0.2020826 0.03260748 0.1008148 -0.08262543 0.1559473 0.07637893 0.008735557 0.1151969 0.03847273 -0.07542281 0.06085494 0.05151477 -0.05587717 -0.1517741 -0.08674474 -0.1136684 -0.0398236 0.006915802 0.05702235 0.004640344 -0.04839666 0.04475168 -0.1317325 0.03116988 0.003044998 0.08644763 0.1224553 -0.04115127 -0.06163738 -0.0150866 -0.01185268 0.06343321 0.02923867 -0.001007176 -0.1368269 -0.0853807 -0.08598943 -0.0940541 -0.0125612 -0.01528212 0.1029938 0.09584728 0.1133589 0.09695321 0.09297811 0.06736846 0.04145126 0.01963851 0.114022 -0.1273092 -0.02702883 -0.05604691 0.0520084 0.03806341 -0.07231259 0.002344068 0.01575906 0.1264822 -0.02469087 -0.04659348 -0.06734113 0.06442901 0.04770895 0.03848961 0.08797407 0.0734842 0.1381753 -0.06240759 -0.07273939 -0.04292044 0.1204574 -0.05296781 -0.06331032 0.01825045 -0.1403068 -0.04414178 -0.2249619 -0.1213681 -0.06753007 0.03750938 0.09281626 0.2086358 0.05239034 0.04730158 0.1482436 0.0158345 0.1147123 0.0294289 0.0564487 -0.08097031 -0.0851108 0.01307428 -0.02275773 -0.02563877 0.04603435 0.01469901 -0.06675813 -0.05687984 0.1057327 0.05132552 -0.01106857 0.1713492 0.08128189 0.1491786 -0.05433559 -0.02193183 0.09411233 0.03637286 0.03398704 0.01102903 -0.007160177 -0.04182999 0.04869764 0.0918026 -0.1555951 -0.03257073 -0.2031589 -0.06303446 -0.04747908 -0.1041258 -0.01597557 0.05986098 0.007383418 0.08438909 0.04667584 -0.004120653 0.03827738 0.00298098 -0.03678865 -0.08366615 -0.1545705 0.02608781 -0.02935679 -0.06281561 0.06998295 -0.03384153 0.06030901 0.09921707 0.05870342 0.04871179 -0.01827391 0.1532312 0.02238707 0.07360701 0.003771963 -0.01324717 0.01496181 0.06928936 -0.04952782 0.02366947 0.08232831 -0.06453709 0.0597075 -0.03592008 -0.1328865 -0.1066811 -0.01964925 -0.0180897 -0.01856907 0.005221433 0.1663076 0.03864471 0.07048099 0.1745278 0.005859935 -0.02136947 0.04747989 -0.002003815 -0.07598336 -0.2151681 -0.1141855 -0.01193544 -0.07574514 0.01392106 0.01058717 -0.05001389 0.08093216 0.08986523 0.1399517 0.02132121 -0.05629206 0.08328962 0.01567996 0.04736827 0.03365861 -0.02460214 -0.05401734 -0.07063191 -0.0772185 -0.01790505 -0.006959785 -0.0004335961 0.06117927 0.09360701 -0.07505745 -0.00501606 0.1339662 0.0891349 -0.08208942 -0.068359 0.09208982 -0.01165224 -0.03935634 0.08973886 0.02376804 0.02706217 -0.07420953 -0.1172075 -0.01308156 -0.1393413 -0.1732651 -0.06030611 0.008342867 0.02316924 0.06619065 0.06191158 0.01456783 0.07209007 0.08401544 0.02227751 -0.0271802 -0.09664157 0.02069397 -0.08571327 -0.01515956 -0.05617043 -0.1001319 -0.007845177 -0.04946721 -0.08320348 0.02240405 -0.05860466 0.03733528 0.06957992 -0.09803791 -0.0824866 0.2540857 0.1451769 0.09274396 0.1108031 0.08957966 0.01398514 0.07491133 0.07528117 0.1193079 0.01680688 0.137205 0.09590224 -0.002258592 -0.1962474 -0.05316824 0.05208039 0.08235582 0.04789056 0.1457411 0.07572504 0.01225774 0.07373718 0.1295604 0.05422854 -0.02445566 0.04298424 -0.03026217 0.05901363 0.05968757 0.01284958 -0.1808264 -0.1198881 -0.1155071 0.07445732 0.07671837 0.09060608 0.1178122 0.1263927 0.04413091 0.1672764 
  0.02626324 0.01941663 -0.03563134 0.04396789 -0.0093457 -0.03340173 -0.09025852 -0.06435135 -0.04447313 0.06343113 0.08188295 0.02867293 0.1002771 -0.02990688 -0.0115508 -0.02132205 0.1699272 0.1552565 0.02979794 0.02891705 -0.01135676 0.04622699 0.01981103 -0.01098469 -0.02707525 -0.08286064 -0.0459278 -0.01362188 0.1412306 0.03146652 0.04156068 0.09103898 0.08061935 0.02442685 -0.02688454 0.1189588 0.1323132 0.1664089 0.06223096 0.01182246 0.1890524 0.00456378 -0.1202595 -0.03630366 0.05720753 0.006407956 -0.05032381 -0.05154033 -0.02095621 0.01625317 0.03670722 -0.1191784 -0.08355448 -0.04919478 0.06682224 0.06930056 0.1602638 0.03996563 -0.005606015 -0.008794671 -0.05616599 -0.03258457 0.02982244 0.03907443 -0.09122207 -0.1094622 -0.07048361 0.03120784 0.03010675 -0.02167285 0.002954795 0.07051683 0.06194077 0.06858005 0.04092924 -0.001643482 0.03767824 0.05521191 0.09468865 0.1013965 0.1491298 0.04249688 0.05349042 0.1561599 0.021369 -0.01799132 -0.08715554 -0.04871884 0.02564748 0.006950217 -0.1799861 -0.03409937 -0.1456457 -0.09729892 0.02550559 0.03705946 0.05446621 0.02679813 0.06528886 0.0186858 -0.03836817 0.03108324 -0.04246061 0.03543887 -0.1302149 -0.06997557 -0.0481933 0.009665634 0.03183505 0.01356145 -0.01580339 0.03818811 0.01838291 0.04496727 0.0537729 -0.04290166 0.1099358 0.1200738 0.03206188 -0.01818535 0.1774831 0.1463548 0.02130687 0.09953399 0.1096407 0.05801731 -0.03656406 -0.05242791 -0.08884864 0.01442767 -0.07339234 -0.1189329 -0.02972455 -0.07286061 -0.03138964 0.1172009 -0.007932045 0.00635677 0.01957277 -0.0110911 -0.005865762 -0.06269797 0.01982087 -0.03888683 -0.04018903 -0.04059926 -0.04756365 -0.1083935 -0.0357029 -0.04349157 0.01133819 0.06622357 0.008466834 -0.01410929 8.409632e-06 0.01970061 0.07803597 0.1107551 0.0929867 -0.02272972 0.1020223 0.03289028 -0.01591873 0.1473218 -0.03313952 0.05836216 -0.06240608 -0.1056619 0.001093615 0.01504057 -0.03707092 -0.03320217 -0.09469818 -0.09009752 -0.01629739 0.03255089 0.129442 0.02804389 0.003246703 -0.0939914 -0.1189742 0.06064773 -0.1147183 0.03921833 0.02092075 -0.0422832 -0.0634727 0.02030879 0.04205517 -0.04420849 -0.0461525 -0.05349097 0.06710261 -0.02129689 0.0255936 0.1167634 0.02792219 0.1092759 0.08472828 0.01110093 -0.01650308 -0.1014941 0.0379869 0.09555663 0.1550708 -0.008747195 -0.008711159 -0.05877819 0.05277974 0.01247805 -0.1171128 0.04782064 -0.08016527 -0.03625051 -0.02805746 0.02846603 0.04146477 0.02787732 -0.05065025 0.01110628 -0.08263459 -0.1061053 0.01877385 0.0392023 -0.01602641 -0.04944326 -0.0245449 -0.009715996 0.04847924 -0.01425514 0.007306008 -0.03431101 -0.03049028 0.03272809 -0.04713364 0.04696483 0.08922178 0.02717421 0.1531073 0.04401533 -0.07113871 -0.005733134 -0.09407364 0.1292521 0.07443698 0.007360135 -0.06148117 -0.04916875 -0.07188421 0.1025166 -0.01177887 -0.03403463 -0.0557279 0.01402094 0.06233035 0.1158239 -0.01004972 -0.03803792 -0.03288378 -0.128975 -0.03607145 -0.07120156 -0.01576061 0.0271758 -0.03019835 0.03440994 0.003776901 -0.03907784 0.005247245 -0.01156257 0.009125347 -0.01970119 -0.04657993 -0.03543995 -0.02366589 0.03604451 -0.004689296 0.07402682 0.1364733 0.111463 -0.02493712 -0.01427118 0.01728179 0.008916512 0.124264 0.06676448 0.05775575 -0.05548894 0.00402012 -0.07028118 -0.08542836 -0.06559274 -0.05269079 -0.05016945 -0.04535158 -0.05283549 -0.005110005 0.04970706 -0.04561252 -0.08720396 -0.03270917 0.02294266 0.005689266 0.01459548 0.09099966 -0.07355175 -0.04842564 -0.1159496 0.002306612 -0.002330221 0.04350033 0.01590241 0.0623694 0.01877651 -0.03484052 -0.03188625 0.1041659 0.06601673 0.1054464 0.03010634 0.06230845 0.09226014 0.05467897 0.06309956 0.07814226 0.02152614 -0.08012033 0.04327571 0.03282683 -0.03374584 -0.1060686 -0.03276291 -0.09229551 -0.07178096 -0.0671154 0.03430054 0.01875956 -0.02344407 0.03024814 -0.01074898 -0.1103195 -0.0772694 -0.01257214 -0.04062762 -0.08809058 -0.02867868 -0.03814114 -0.04300831 0.1048085 -0.03030671 -0.06382562 -0.0438085 0.02206383 0.1228128 0.04470471 0.02255017 0.08821437 0.004658457 0.154113 0.03701824 0.0171816 0.0646555 0.07784117 0.05956868 0.002740578 -0.05172445 0.06390644 -0.05898646 0.002762073 -0.06928204 -0.06651891 -0.06032915 -0.02930848 -0.04386422 -0.04997621 -0.009881639 0.1203459 -0.00706481 0.02926987 -0.0484114 -0.005350042 -0.06247437 0.04523258 0.07964731 -0.06649966 -0.1133116 -0.09268519 -0.05303192 -0.06426011 0.05230258 -0.009203461 -0.04593646 0.1097661 -0.004076747 0.003568555 -0.0735583 0.134629 0.02832275 0.06851617 0.02419191 0.2783082 0.08169664 0.08657349 0.06900174 0.04462036 0.1087724 -0.0008558948 -0.01930801 0.09880465 -0.04438389 0.06796893 0.01493649 -0.002750999 0.02842446 0.03776514 0.01916299 0.1722439 -0.0274142 0.05338524 -0.01639008 -0.02858944 -0.02025224 0.02859023 -0.01729975 0.006759478 -0.02265113 0.001106908 -0.05129894 -0.02440356 -0.006667793 -0.04380105 0.01467133 0.06530938 -0.001481582 -0.06981842 0.04450791 0.07155415 -0.01813552 0.02424021 -0.009502217 
  0.0303165 -0.08156608 -0.03773624 -0.1726373 -0.2544529 -0.1767529 -0.06159968 -0.1853411 -0.06507174 -0.1123993 -0.09144773 -0.1787251 0.0673559 0.06569517 0.08382815 0.06817877 0.1003077 0.06232298 0.1484815 0.1331872 0.1262704 -0.06941903 -0.03381286 -0.04130447 -0.07467074 -0.009571651 -0.01229908 0.06556687 0.1478633 0.2495386 0.1602171 0.003341901 -0.2195495 0.03116017 0.08482476 0.103957 -0.09678674 -0.002082703 -0.04509455 -0.0824944 -0.040137 0.01653424 -0.02509848 -0.03492749 -0.05438508 0.026959 -0.0342158 -0.06327627 -0.06636737 0.01348806 -0.03482788 -0.09107823 0.07950266 0.1038725 0.1303881 0.1156662 0.1345123 -0.03951794 0.0675721 0.005196764 0.04928082 -0.0319233 -0.08883283 -0.02924546 0.02260535 -0.2363606 -0.06495045 0.05136601 0.1402643 0.1433323 0.09890673 0.0009085747 -0.2459636 -0.1259237 0.06090214 0.1339628 0.07121339 0.09117427 -0.152936 -0.1345667 -0.2409631 -0.1128948 -0.04021339 0.02064759 0.0110871 -0.01336998 0.02020086 -0.09773661 0.006323528 0.03222215 -0.06382646 -0.1124234 0.05439718 0.164589 0.2121038 0.2328405 0.03232749 -0.009915877 -0.03805944 0.0170652 -0.03717764 0.0004990686 -0.1458252 -0.1207415 0.007387612 -0.1280996 -0.07082237 -0.05226124 0.1150655 0.1423454 0.1958396 -0.07222867 -0.1964735 -0.1098357 0.07705836 0.1677512 0.1270057 -0.01940851 -0.05928314 0.02683487 -0.2812972 -0.2345955 -0.1123142 -0.05659086 -0.01865828 -0.01182163 -0.04139595 -0.166062 -0.01515174 -0.1619421 -0.04924587 -0.06584732 -0.06228419 0.08728252 -0.03090076 -0.07880752 -0.07629637 -0.04241578 -0.1787895 -0.1608754 -0.1159185 -0.1127523 -0.2800812 -0.1188469 -0.1618028 -0.09352738 -0.1699663 -0.1301336 0.05640484 0.1785913 0.09204057 -0.04676206 -0.09105533 -0.07149073 -0.0263963 0.09752919 0.03936923 0.04069058 -0.07874827 -0.05711114 -0.2324612 -0.2024886 -0.04293927 -0.1218384 0.02410159 0.09974041 0.02007769 -0.01715245 0.02492903 -0.09219222 -0.01349695 -0.01399512 -0.002192493 -0.0371311 -0.02390736 -0.05723772 -0.08828298 -0.04538126 -0.004526004 -0.1005875 0.04407562 0.02285422 -0.0210363 -0.08829804 -0.05955191 0.005757126 -0.08472595 -0.06612878 0.07091731 0.2412685 0.2011816 -0.1133627 -0.1355215 -0.01670431 0.01039227 0.128308 0.08556786 0.05921369 -0.08786598 -0.02598392 -0.09631032 -0.09805528 -0.04829129 -0.0425075 -0.02635934 0.005167421 0.03864707 -0.007881059 0.006161492 0.01138459 -0.0591746 -0.1114422 -0.06226342 -0.09643205 -0.1042898 -0.1424933 -0.08134761 -0.08281089 -0.09983249 -0.1334649 -0.09107006 0.143048 -0.1055818 -0.1365166 -0.02200645 -0.02841582 0.003533544 -0.06632364 0.03731409 0.1177767 0.0602878 -0.01258546 -0.05310944 -0.06361669 -0.0223619 0.09601122 0.260213 0.08078903 0.03348794 -0.05401528 0.1025176 0.1506892 0.1360598 0.002396309 0.006439537 0.06199412 0.05886282 -0.04345391 0.004962709 -0.02821402 -0.006496312 -0.01538498 -0.1953322 -0.1489227 -0.1605309 -0.06076854 -0.04960568 -0.1295249 -0.06112168 -0.005300494 0.03362879 0.05733727 -0.02574917 -0.02412328 0.1112673 0.1088064 0.07904816 -0.06079902 0.03031862 0.1541447 0.0953844 -0.01553548 -0.03677265 0.004936013 0.0005550421 0.1400523 -0.004097139 0.1061946 0.01046021 0.01587677 0.3471548 0.1804854 0.2957345 0.04963976 0.1250477 0.01544761 0.006116734 0.01555395 0.03423932 0.09585904 0.08556127 0.1258263 -0.03844898 -0.06716593 -0.1547331 -0.1074861 -0.06740288 -0.01889915 -0.0431543 0.05486147 0.1070985 0.1420698 -0.04159817 -0.07500918 0.01310099 0.09646436 0.01541531 0.01709536 0.03736774 0.1137316 0.1456674 -0.1205361 -0.03267867 -0.05779131 -0.1000536 0.0133175 0.1370323 0.04937987 -0.03567295 -0.0492983 0.3048354 0.2069402 0.3397253 0.3262861 0.2337925 0.3074509 0.2224486 0.2018777 0.1842952 0.2110744 0.2069106 0.118927 0.1436513 0.01147092 -0.09494774 0.09167542 0.07458771 -0.002515361 0.2105033 0.07671195 0.1907428 0.1173953 -0.01462035 -0.05218184 0.1907967 0.2447824 0.02897002 -0.03551132 0.0607278 0.1423438 0.01502551 -0.03466877 0.007050013 0.02155452 -0.08150458 -0.01686448 -0.02199304 -0.01697 -0.1346673 -0.09824991 0.2304294 -0.0374175 0.1289639 0.07934702 0.1407073 -0.007671986 0.04847777 0.00959909 0.01398951 0.01871433 0.1311618 0.1249096 0.07732904 -0.06932845 -0.05010243 -0.001851724 -0.02816162 0.06575631 0.03523342 0.03589833 0.03370957 0.04996087 -0.06803774 0.06933793 0.1128791 0.2141262 -0.007152373 0.02921159 0.02046681 0.2891468 0.03845426 -0.06024752 -0.1351311 -0.03253688 -0.1035854 0.02482873 0.004741808 -0.03774702 -0.2097421 -0.106271 0.003281317 -0.2266985 -0.0157389 -0.005747217 0.07198117 -0.03782453 -0.02188927 -0.06263254 -0.007577777 0.05973104 -0.0781749 -0.02591085 -0.1237028 -0.09764572 -0.1224117 -0.009706499 0.03560217 -0.1052079 -0.05670553 -0.2148256 -0.01093925 -0.002566146 -0.202581 0.05531283 0.08955785 0.09140815 0.1094547 -0.007753977 0.01738845 0.08392761 0.08982773 -0.1064286 -0.08606358 -0.01976387 -0.05012779 -0.02660631 -0.07174842 -0.1083134 -0.1099926 -0.1035014 
  -0.2305728 -0.03388159 -0.03957409 0.0870805 -0.004118626 0.1550531 0.1989921 0.2055718 0.1665838 0.03279238 -0.04749101 -0.03836447 -0.107775 -0.07281008 -0.08564414 0.01647458 -0.07087423 -0.09676857 -0.1275318 -0.2584778 -0.1866243 -0.1394711 -0.0288301 -0.01579196 0.08419874 0.286071 0.3550938 0.1317728 -0.02863 -0.01404559 -0.04295173 -0.01554965 0.02592993 0.02583491 -0.04181721 -0.09176033 -0.1114489 -0.1572282 -0.07774046 0.00242408 -0.1932646 -0.09466453 -0.06583235 -0.02799357 0.08924711 -0.004077994 -0.03468193 0.1094887 0.02332791 -0.01407669 0.02059759 -0.09149983 -0.08105383 -0.2053123 -0.006285739 0.02588346 -0.04967861 -0.1459571 -0.06948128 -0.1511421 -0.1433774 -0.2583111 -0.03787246 0.00303851 0.1090368 0.1862687 0.1025184 0.07251148 -0.0489077 -0.05144298 -0.1508128 -0.04351015 0.05301778 0.005087609 -0.03919623 -0.1029712 -0.01303058 -0.08348081 -0.08056618 0.04176039 -0.2445828 -0.1204336 -0.07875124 -0.06490019 -0.04591081 0.06733398 0.0228906 0.03568567 0.05640578 -0.05368127 -0.02950245 0.003908194 -0.1153265 -0.03134105 -0.07186293 0.0753255 -0.03199584 -0.0912598 -0.08465977 -0.2129824 -0.08592977 -0.190795 -0.07864264 -0.06821327 0.06306674 0.1448213 0.1210798 0.126617 0.03744718 -0.04728467 -0.1573531 -0.03375489 0.05355028 0.03589595 -0.0306401 -0.06855063 0.02032109 -0.01187786 -0.1179221 0.0829314 -0.1248313 -0.0759576 -0.04566575 -0.1370873 -0.05774394 0.0103817 0.010581 0.0525763 0.106312 0.07045496 0.02091611 0.01160424 0.01685533 -0.1586594 -0.05515329 -0.003315842 -0.1132316 -0.03295697 -0.0946288 -0.115034 -0.06451345 -0.2219033 -0.1015575 -0.01675614 0.1003137 0.2036117 0.06858856 0.1846733 -0.04674584 0.01076498 -0.09514222 -0.101341 -0.0621155 -0.07089905 0.07284166 0.04254631 -0.03736963 0.03889572 0.1192295 0.2064574 -0.09693507 -0.1402288 -0.03069745 -0.1637868 -0.05277624 -0.01437953 -0.0421944 0.03639101 -0.06854333 0.07224943 -0.04284243 -0.0179367 -0.005355493 -0.06898942 -0.08393485 -0.08915276 0.0006292028 0.1202438 0.03588431 -0.03601482 0.02591775 -0.02316509 -0.04004695 -0.05341421 -0.01166962 0.1159139 0.03508819 0.04260354 0.01435493 -0.1403488 0.02418819 -0.02723549 0.08693705 -0.002100596 0.06443155 -0.03405904 -0.07002099 0.1140573 0.04801 0.1668751 -0.002554947 0.01199292 0.009167279 -0.09024467 -0.04181451 -0.02891313 -0.001710403 0.1502614 0.08410452 0.07072302 0.1451128 -0.0002107706 -0.0601547 -0.180979 -0.1353465 0.04084894 -0.01339203 0.08571915 0.08407646 0.08177115 0.007966035 -0.005866435 0.01510195 0.04366628 -0.03750715 -0.01363665 0.01279585 -0.05611674 -0.09578357 -0.130695 -0.1425845 -0.1011274 -0.01322812 -0.05236458 0.03507546 0.0468822 0.002619522 0.04375824 -0.08528081 0.2044163 0.239899 0.1560772 0.1077242 -0.01862301 -0.02226797 -0.1109804 0.1030402 0.03051353 0.1006588 0.1486913 0.02704079 -0.03339214 -0.06275205 -0.1380581 -0.1742641 0.05349079 -0.1317161 0.1522922 0.01937383 -0.1502106 0.07001118 0.05525915 0.1092054 -0.109306 -0.0584575 0.006738677 -0.002638868 -0.02363789 -0.1150307 -0.05508023 -0.1471197 0.01642428 -0.05771139 -0.02344962 0.04954206 0.001957352 0.09285586 0.0006686734 -0.04143374 0.06991934 0.3577635 0.07158709 0.03574787 0.07324727 -0.06126132 -0.1727747 -0.03688699 0.03567249 0.01145475 0.08173006 0.1017495 0.0007329349 -0.1028434 -0.1059021 -0.195862 0.01797821 -0.03587202 0.0649756 0.04662937 -0.04541736 -0.03283859 0.182882 0.2451583 0.06541622 0.03063635 0.01274659 -0.0500752 -0.1389231 -0.08795391 -0.1081111 -0.04091314 0.03770455 -0.01399151 -0.1391602 0.03714895 0.04145644 -0.02519938 -0.001172447 -0.08663644 0.1966279 0.2490563 -0.08174437 0.0009446819 -0.1384759 -0.1758464 -0.1449592 -0.008078137 -0.06214389 0.02462679 0.07667548 0.03812731 -0.04728258 -0.08471619 -0.194589 -0.1739926 -0.01996656 -0.03433321 -0.00617889 0.1019591 -0.126698 -0.05501701 0.1135987 0.231791 0.07857989 0.02806653 0.002704072 0.00673955 -0.0513422 -0.09805911 0.03388603 -0.07829456 -0.06990945 -0.1017344 -0.07780882 0.0147104 0.05381598 0.04047684 -0.006341965 0.0006642414 0.1485656 0.04242882 -0.07668645 -0.09664205 -0.1358 -0.1345474 -0.2443773 -0.08636937 -0.02233859 -0.01054778 0.0580526 0.05641805 -0.09160782 -0.07001017 -0.08113385 -0.06900723 0.04774506 -0.02434428 -0.02155756 -0.08966044 -0.21726 -0.04262568 0.03209955 0.1106632 0.009615961 -0.02627741 0.05910348 0.08370233 -0.1098494 -0.0322114 0.04135443 -0.009201914 -0.009214623 -0.03774647 0.006241858 -0.05542982 0.02657754 -0.03183549 -0.2338212 0.0002783196 0.164297 0.09724439 0.172313 0.4276692 0.4749717 0.3573464 0.2348089 0.1830331 0.2061787 0.2200003 0.2290744 0.2152733 0.1789039 0.2419336 0.1652483 0.1851036 0.18353 0.2318 0.1132736 0.05315907 -0.1346628 -0.05721712 0.09028418 0.1465623 0.06360669 0.060187 0.1169482 0.1692352 0.1301603 0.05846347 0.311103 0.2017461 0.1278755 0.07131372 0.1474542 0.1688492 0.08641654 0.1005482 0.07470464 0.185759 0.5112881 
  -0.07978991 -0.01685317 0.1105899 0.03122708 0.1920691 0.2003551 0.3045287 0.2516924 0.1876216 0.09357736 0.0398494 0.03350529 0.06037677 -0.1133663 -0.1277506 -0.01876026 -0.08759994 -0.1523036 -0.1838509 -0.2694594 -0.148205 -0.0548494 -0.2031006 -0.1824459 -0.01407845 -0.1771975 -0.04358389 0.1434484 -0.0498757 -0.3060639 -0.06867781 0.05011899 0.3215051 0.1397617 0.07368381 -0.1821328 -0.001129919 0.09175204 -0.2050948 -0.2550958 -0.2251269 -0.01542004 0.08896593 0.0287199 -0.05009237 0.1336561 0.1734235 0.06393392 0.09985944 0.07208277 0.1544982 0.05502439 0.1392652 0.008305194 -0.09237276 -0.01949416 -0.09993148 -0.1114868 -0.1069443 -0.02385917 -0.01128955 0.09112711 -0.06867187 -0.01244745 -0.07670172 -0.1608985 0.01716541 0.1025273 0.1008601 -0.2825618 -0.07500124 0.06726174 0.3019307 0.2380106 0.03633937 -0.182176 0.06945981 0.106328 0.02482561 -0.2337829 -0.1146326 0.07196463 -0.04191826 -0.09023568 -0.07929463 0.04164842 0.08410952 0.1296605 0.08842817 0.1299327 0.2130745 0.1009977 0.08565257 0.06826264 -0.1521503 -0.04899814 -0.0492534 -0.05616295 -0.08008483 0.01142907 0.002304436 0.03342023 -0.0823445 0.01505883 -0.01632391 -0.1067408 -0.1034552 0.05817508 -0.0580604 -0.1689602 -0.1190971 0.1149064 0.1974419 0.03675946 -0.006156443 -0.0560479 0.09790168 0.1578605 -0.04354357 0.0205251 -0.1325615 0.01304089 -0.0314049 -0.1670216 -0.1055727 -0.07227766 0.003691523 0.02020641 0.08919638 0.06885543 0.07619964 0.04668719 0.05316062 -0.1433247 -0.09257875 -0.1172919 0.003954039 -0.008997257 -0.03087895 -0.002666456 0.0850111 0.1573978 -0.01933329 -0.02540584 -0.01992885 -0.1011205 -0.03526253 0.03303003 -0.02205076 -0.190929 -0.002769409 0.1000916 0.1505029 0.1491968 0.0374325 0.01797283 0.07999145 0.01971261 -0.03127848 -0.1120647 0.1244167 -0.0417271 -0.01532685 -0.129472 -0.1287617 -0.1354565 0.08774289 0.007183934 0.101173 0.01563061 0.1088444 0.07357718 -0.00382988 -0.007436735 -0.1056476 -0.08098505 0.02118975 0.06209293 -0.0608691 0.04456896 0.09317303 0.1254692 -0.01672297 0.09643219 0.02413548 0.05993718 -0.0261344 0.08592204 0.04027934 -0.08142853 -0.07745031 0.07942887 0.1399726 0.09938131 0.008926895 0.06673981 -0.01311075 0.1152577 0.02783697 0.005273466 0.1691931 0.0282518 0.0517097 -0.1237511 -0.193868 -0.1140527 -0.003735792 0.0838622 0.04548543 0.008959221 0.00973743 0.03188691 0.02518737 -0.01726737 -0.0333317 -0.08570488 -0.006199533 -0.02365512 -0.01195554 -0.04910163 0.08069091 0.0990733 -0.05308172 0.0233324 0.1049543 -0.06049918 -0.1058161 0.03581411 0.04486495 -0.0232597 -0.0571097 0.08470754 0.05854786 0.01930177 0.03506972 0.1096802 0.108472 0.1289513 0.05919316 -0.05062542 0.08877603 0.1143641 0.06337679 -0.08473636 -0.1465773 -0.100213 -0.02681232 0.03056537 0.1024536 0.08588904 0.02846735 0.0761232 -0.001858211 0.07215638 0.04802242 -0.01831525 -0.04581857 -0.04947317 0.001839154 -0.05828883 0.0713898 0.1021501 -0.04159497 -0.08314598 0.04981674 -0.1041095 -0.1559739 -0.02143862 -0.004286076 -0.02958916 0.01027383 0.1463851 0.1410563 0.01129843 -0.07652542 0.03828331 0.04202911 0.08445655 0.1161818 -0.02991207 0.04503583 0.0494058 -0.02432298 -0.0247637 -0.2213909 -0.05992798 -0.003959034 -0.01335151 0.1180213 0.02445298 0.03466184 0.1439112 0.06030029 0.1065743 0.02504241 0.01869239 0.04679386 0.03651876 -0.09207918 -0.1067228 0.115384 0.0718718 -0.03721036 -0.09999789 0.07054764 -0.05557126 -0.08004392 -0.08445 -0.0651895 -0.04332098 0.05611752 0.2039812 -0.01727219 0.1139752 0.09217704 0.04086997 0.03658861 -0.003546214 0.03301796 0.08672965 -0.01817092 0.04154763 0.02542223 -0.1228769 -0.151403 -0.2114454 -0.007244944 0.08101231 0.03670974 0.008175893 0.09161795 0.1569412 0.1047245 0.008999592 0.04383384 -0.05316303 0.009810888 0.05200977 -0.07642485 -0.06369403 0.09961236 0.04191935 -0.03805569 0.06604224 0.07462302 -0.09847251 -0.04137337 0.01797042 -0.03904624 -0.06446874 -0.01027086 0.1305526 0.1321041 0.006840897 -0.02683494 0.0486155 -0.05629967 0.007922145 -0.1071328 -0.06537778 -0.08745632 -0.07178713 -0.0006046166 -0.03508716 -0.0821126 -0.1173791 -0.04856063 0.1109667 0.06803922 0.06579825 0.1184825 0.06199324 0.06895145 0.1070898 0.1527333 -0.05831273 -0.1059663 -0.01421448 -0.05774815 -0.03800256 0.01967788 0.007497269 -0.02274156 -0.02046922 0.09201768 -0.02309787 -0.01215561 0.08365579 -0.10871 -0.1185595 0.02767978 0.1835919 0.07520028 0.04055196 0.1032956 0.08941521 0.09484985 0.04565562 -0.01096804 -0.03802657 -0.1559841 -0.1358702 0.1254049 0.2511443 0.2022305 0.1731249 0.1213048 0.06152783 0.1908062 0.0843033 0.1107738 0.239329 0.1831138 0.0359408 -0.01069924 -0.01181517 -0.09353051 -0.0778653 -0.09754186 -0.1763478 -0.1457371 -0.09365185 -0.1404226 -0.01256085 -0.003989009 -0.01602123 -0.1164302 -0.02998492 -0.1034471 -0.108624 -0.08298067 0.03434728 -0.05920502 -0.1108749 -0.008452917 -0.1068918 -0.01380285 -0.1121807 -0.1999708 -0.2101412 
  -0.170897 0.01813191 0.1588224 0.1787729 0.1626781 0.1633682 0.2566371 0.1152919 0.08102297 0.2029977 0.2685268 0.2177655 0.2185996 0.1338908 0.1756607 0.1207537 0.1648586 -0.0686428 0.07839382 0.2410149 0.3303798 0.1075002 0.3824385 0.2179521 0.1873327 0.2645233 0.1865528 0.1098443 0.0921388 0.0001624644 -0.07059771 -0.08485173 0.03067177 0.002287525 0.08170713 0.03797837 0.03908756 0.02730042 0.07375912 -0.02979283 -0.1289509 -0.02962078 0.1132333 0.04038436 0.05399095 0.04953407 0.03518339 0.01832611 0.04688903 0.02523927 0.210749 0.04650481 0.06486885 0.005528868 -0.01986975 0.04981562 0.04493743 -0.02661244 0.08469223 0.3749031 0.242117 0.2201942 0.3660321 0.103189 0.08259463 0.1858027 -0.03122774 0.01577767 0.0361667 -0.1167645 -0.0008327639 0.07943431 0.07157041 0.0329261 0.1101674 0.0705882 0.0251129 0.04431193 -0.05086955 0.02222761 -0.02338465 -0.02076852 0.1235868 -0.05528592 -0.1107729 -0.007538675 0.05853225 -0.006359817 -0.03788397 0.02895563 0.06199733 -0.003902426 -0.08156881 -0.1367271 -0.1283233 -0.08532232 -0.0249729 -0.04794761 0.01894935 0.2794686 0.3286101 0.09314518 0.0548823 -0.06647541 -0.04758609 -0.08117193 -0.1195977 -0.1107387 -0.0330969 -0.1451695 -0.1295712 -0.1338403 -0.04595624 -0.07314993 0.005147339 -0.01231204 -0.02014622 0.001435636 0.01648499 0.006488896 0.01647181 0.03717972 0.1119477 -0.06363183 -0.2328892 0.018425 0.04805369 -0.05390384 0.01586139 0.08625346 0.1867428 0.06128625 -0.120533 -0.19668 -0.08047459 -0.09540762 -0.03114528 -0.02028064 0.09157135 0.1817472 0.1990162 0.1099262 0.1220377 -0.1482321 -0.1448772 0.01300378 -0.06962792 -0.1303536 -0.1470233 -0.08792643 -0.09326085 -0.03772443 -0.04003913 -0.07419904 0.09123784 0.1205481 -0.03987118 -0.0139459 -0.02152096 -0.09717675 0.07827902 0.04022694 -0.02527221 -0.07964154 -0.2300346 -0.02977876 -0.05431047 -0.08994479 0.06689017 0.02341132 0.2073494 0.06429798 0.007522477 -0.1629068 -0.1914055 -0.1147587 -0.126261 -0.07323773 0.1405712 0.2764963 0.2474599 0.08178991 0.117135 -0.1769148 -0.2393779 -0.08457003 -0.1706084 -0.1401957 -0.1385231 -0.1104013 -0.1230703 -0.09450573 -0.09443004 0.04532772 0.04566881 0.07075535 0.01890927 -0.1235795 0.02826329 -0.01879393 0.03593476 -0.09678125 0.0004465114 -0.0693247 -0.2212515 -0.008634957 -0.05676268 0.01468364 0.1100819 0.08551227 0.07416107 0.1210632 0.03036402 -0.08985568 -0.2232267 -0.2024871 -0.1662644 -0.1263342 0.151254 0.3581165 0.1913902 0.1319202 0.06564663 -0.2417694 -0.1867417 -0.01705999 -0.09541605 -0.1325018 -0.1232451 0.0006857028 -0.01164141 0.03336612 -0.1314502 -0.002333499 0.04967106 0.05660646 0.08940464 0.09915037 0.1101065 -0.0210427 0.008605475 -0.06142655 0.03725759 0.03110808 -0.08593472 -0.1198308 -0.04230019 0.05346823 0.034738 0.02499743 0.1170784 0.07602593 -0.0106955 -0.1606389 -0.2001632 -0.1237694 -0.1739893 -0.02411662 0.04184024 0.3118423 0.193766 0.08625337 0.1553058 -0.1659056 -0.164874 -0.01850223 -0.07089134 -0.1955273 -0.1461357 -0.04541332 0.01478894 -0.03523009 -0.1156549 0.03254995 0.0578963 0.05688962 0.005171085 0.08284671 0.04776935 -0.03705957 -0.008290744 -0.08115473 0.03339178 0.04443891 -0.1285099 0.08717169 -0.09610346 -0.0001243413 0.1497335 0.07518391 -0.005825285 0.10189 0.02624119 -0.1958234 -0.09662578 -0.1242467 -0.1413837 -0.1627389 0.1915301 0.2039942 0.1440631 0.06360698 0.02157019 0.03962031 -0.1145655 -0.1035612 -0.001224373 -0.04154711 -0.1171361 0.02883263 0.02081464 -0.005472033 0.008894214 -0.08903863 -0.01276046 0.06514426 0.04571833 0.05545133 0.1151369 -0.02172833 0.04745526 -0.05310183 -0.0176007 0.02803839 -0.06881064 -0.1104795 0.00854662 0.03601397 0.07949011 -0.002952202 0.005620518 0.02293492 0.1128257 -0.1118582 -0.08447973 -0.07380899 -0.09922565 -0.007522525 0.09162017 0.1523719 0.1480831 -0.01992617 0.03978911 0.09514276 0.02205872 0.007449018 0.0181258 -0.08339716 0.01337052 0.08775286 0.1042518 0.1363254 -0.1372081 -0.01979622 0.02246275 -0.04681983 0.02716305 0.06038304 0.06599077 0.03786563 -0.034998 -0.06943575 -0.1244788 0.04545502 -0.02363376 -0.04155663 -0.02723761 -0.04245766 0.08273539 0.03165844 -0.07077844 0.03383167 0.03169557 -0.05710089 -0.06528798 -0.08575507 -0.04815938 -0.1537458 0.1310929 -0.02753797 0.02617236 -0.1748155 0.00247438 0.04298911 -0.1946945 0.006923919 -0.08746373 -0.05401799 -0.07862213 -0.1032938 0.03463763 -0.03914957 -0.1261334 -0.07118733 -0.09135914 -0.03122575 0.0332554 -0.08476148 -0.1222747 -0.09372687 -0.0543809 -0.086082 -0.01086194 0.06924 0.02925208 -0.07148302 -0.006399864 -0.06066278 0.01792534 -0.05989402 -0.02978307 -0.007577761 0.03033241 -0.02244954 -0.08658053 -0.0007548779 -0.08253898 0.03065391 0.1145107 0.04319755 -0.004528015 -0.1694666 0.02650973 0.09842711 -0.07552543 0.08085894 0.09301477 -0.04680862 -0.009440349 0.004797488 0.112745 -0.02444619 -0.1560874 -0.07210797 0.01308042 0.0599723 0.2298006 0.07215925 0.05789238 0.03229507 
  0.09008121 0.04406997 0.2650339 0.1691989 0.122521 0.07871055 0.1906253 -0.05054732 0.1876431 0.1729799 0.1897245 0.07226086 0.0316533 0.004672576 -0.1164773 0.01433501 -0.002810666 -0.1168349 0.0007804148 0.03040726 0.08920262 0.09281609 -0.08031037 -0.01769424 -0.112605 -0.1087657 -0.03165659 0.02322953 -0.05476246 -0.1994185 -0.0003890563 -0.07029755 -0.1387024 -0.11397 -0.111914 -0.01777244 -0.1802137 -0.03790194 -0.1715574 0.09419435 0.02782803 -0.0002384615 0.02718368 0.08405248 0.03669247 0.05564127 0.06633335 -0.07917983 -0.007536638 0.1314441 0.1907098 -0.01915031 -0.05022366 -0.04827284 -0.07945312 -0.03187702 0.001670309 0.001833005 0.03722679 0.03338402 0.06299665 -0.02189533 -0.09660592 0.06876907 -0.05119301 -0.01470646 -0.02729604 -0.04239048 0.04339925 -0.03836953 0.05790259 -0.0105442 -0.04019275 0.04668088 -0.06667452 -0.08911525 -0.08895759 -0.05073596 0.1049384 0.1210963 0.09895674 -0.06746319 0.0879972 0.09980107 -0.09399518 -0.03600292 0.06351308 -0.04341714 -0.001419853 -0.003284145 0.08140992 -0.07628641 -0.04617546 -0.09104597 -0.07952549 0.04926332 0.02851129 0.07903098 -0.05576017 -0.1547371 0.03100582 0.001257139 -0.04654991 0.1384602 -0.02583704 0.006766951 0.001802271 0.007719188 0.09325332 0.06490237 -0.0285496 0.03391746 0.01034925 0.08103901 -0.08715674 0.1005366 -0.08845111 0.03834189 0.03977479 0.19072 0.1063366 -0.1025124 -0.1179973 -0.01230923 -0.09022952 0.06133442 0.1046933 -0.0441801 -0.03469775 -0.04849786 0.0695592 0.02464375 -0.05699167 -0.05506344 -0.1093203 0.0676263 0.06840324 0.08754164 0.04501837 0.003636237 -0.001929892 -0.009363 -0.0154458 0.1190094 0.03261084 -0.03605843 -0.09221397 -0.0114082 0.06951785 -0.006419242 0.03007318 0.07134388 0.05020028 0.01066692 -0.09916797 0.1052304 0.1306725 0.1159015 0.0606163 0.2745215 0.1387179 -0.1689085 -0.1240124 -0.1160203 -0.1221924 0.04221646 -0.01003975 -0.01384126 -0.103951 0.0262655 -0.02743747 -0.03869187 0.01982766 -0.01761912 -0.1102644 -0.1597883 0.04868799 0.1159585 0.01841632 -0.03440681 -0.006273486 0.04720825 -0.08228821 0.1904211 -0.0150564 -0.01254673 -0.04188079 0.06103073 0.03056926 0.008462283 0.00209217 0.05085343 0.05970861 0.008841259 -0.01149069 0.0168443 0.1884853 0.1875253 0.08748364 0.2242415 0.0212942 -0.1462709 -0.09194792 -0.1353403 -0.03174089 0.0084128 -0.05848543 -0.006379751 -0.07669532 0.03285227 0.08162558 -0.05197207 -0.03008487 -0.1904846 -0.06724123 -0.1261159 0.1346911 0.1388938 -0.06922305 -0.05032517 -0.05289584 -0.0320906 -0.01659884 0.1607052 -0.01971241 -0.03451746 -0.02820007 0.010295 0.1207582 -0.1422608 0.0241342 0.07098277 0.08160959 0.05450135 0.06498295 0.0424767 0.207219 0.1672458 0.1758608 0.4083791 -0.09934498 -0.06796597 -0.07797903 0.01703097 -0.1047349 0.06315812 0.005267829 -0.003615783 -0.1909931 0.02763708 0.007927359 -0.07248327 -0.02552667 -0.1151815 -0.06636829 -0.08467585 0.05869612 0.0988015 -0.08030941 -0.112109 0.05877895 0.03100849 -0.0731686 0.04299494 0.03037186 0.004849016 -0.006756166 0.02894686 0.05275513 0.022949 0.04075528 -0.003249104 0.1744952 0.07970741 -0.01410602 0.183567 0.1723914 0.3195392 0.1847834 0.2480839 -0.06558767 -0.09311794 -0.04552996 -0.1024609 -0.1144751 -0.04220736 0.08956605 -0.2085153 -0.1582209 -0.03382856 0.02176844 -0.05905953 -0.147006 -0.1062266 -0.1073691 -0.03354635 0.1261089 0.03651093 -0.01563741 -0.07305696 0.05805829 0.009886023 -0.006214656 0.1008118 -0.01763351 -0.03154037 -0.06159863 -0.001291502 0.04086735 -0.09201656 0.1307561 0.1134911 0.04487595 0.03050036 0.03739467 0.1126534 0.2268162 0.2399295 0.238344 0.3341647 -0.04520551 -0.06765829 -0.005931366 -0.05536427 0.0410292 0.1385388 0.08899602 -0.09560187 -0.1990261 0.05613929 0.02597089 -0.06273085 -0.0932425 -0.1099908 -0.06621082 0.009752421 0.04415506 0.1116593 -0.1026578 -0.02504799 0.05872783 0.02786454 -0.05188714 0.1388073 0.03507668 -0.1137644 -0.05941408 0.03523469 0.1213386 -0.006330816 -0.03454712 0.1516493 0.1280508 0.06973919 -0.02501696 0.003904952 0.1333365 0.1876222 0.0946163 0.2139939 -0.06020416 -0.09121262 -0.04380125 -0.09880302 -0.09589876 0.01604342 0.09747586 -0.09780208 -0.08317617 0.1781233 0.08977547 -0.05344717 0.01901657 -0.1611747 -0.1251424 -0.01525298 0.07460862 0.09383587 -0.0886904 -0.07418786 0.03376374 0.1397212 -0.001381224 0.1077379 0.1055606 -0.04892463 -0.02282239 -0.03557215 0.1329511 -0.04499703 0.07739719 0.0004662855 0.08947689 0.003202372 -0.08742551 -0.07931765 0.06737893 0.0976904 0.05625594 0.001999646 -0.07495579 -0.066948 -0.03663964 -0.0123527 -0.02075046 0.09810908 0.09180374 -0.0735695 0.01428141 0.219043 0.04224427 -0.024323 0.01015841 -0.08230636 -0.02576775 0.02008809 0.0258486 0.05420534 -0.06058824 -0.07323894 0.06787478 0.08940807 0.06775574 0.2025303 0.1814369 -0.07731573 0.01460216 0.06838358 0.07349822 -0.07136522 0.06335843 0.04715738 0.01014202 -0.09793508 -0.1345426 -0.1200305 -0.05875659 -0.03402445 -0.1376772 -0.04969237 
  -0.05629291 0.04371447 -0.03632189 -0.01389412 -0.1457074 -0.01269745 -0.05893471 -0.07144676 -0.03896841 0.000667921 -0.04063087 0.01004787 -0.0003610701 0.008339432 0.03358004 -0.09484384 -0.005706633 0.07313228 0.1677702 0.0642015 0.0463561 -0.03032893 0.067375 0.03688222 -0.05754175 0.07741649 -0.003962708 -0.1109928 -0.0395364 0.0672451 0.05876504 0.04756445 -0.0201032 -0.09813431 0.05017023 0.02049644 -0.02003955 0.02358251 0.09030544 0.08710101 -0.0354945 -0.03517925 0.04081772 0.09353632 -0.009346786 0.09302419 -0.03153336 0.01702805 0.01719482 -0.02298263 -0.1636208 0.0009057234 -0.06055942 -0.09157808 -0.03501277 0.0008520285 0.01922417 0.01881812 0.09234498 0.1104672 -0.04180763 -0.02722081 0.07648504 0.04622298 -0.05500021 0.01921756 0.009569873 0.06428569 0.1048305 0.04976755 -0.04924459 -0.1088627 0.01253676 0.03361065 -0.001233185 -0.04988904 0.02376469 0.05383305 0.1059977 -0.08840512 -0.07323454 -0.05653569 -0.05544987 -0.1044617 -0.03073406 0.0750073 -0.02851247 -0.04661712 -0.02356596 0.02303113 -0.05635981 -0.03536311 -0.04178264 0.04939538 -0.004386909 0.06441984 0.1641358 0.01269333 0.05296453 0.05150203 -0.01433661 0.002876812 0.07160475 0.06871434 -0.02202364 0.03793181 0.03715139 0.04721674 -0.008143167 0.06056359 0.06887184 0.0692573 0.02716503 -0.03358365 0.01366928 -0.07648505 -0.04945998 0.04217283 -0.008027746 0.01149201 -0.1110881 -0.1014511 -0.09779292 0.02521536 -0.007727097 -0.03549879 -0.0277432 0.03791087 0.05199984 0.05978607 -0.1017423 -0.03987227 0.004794797 -0.01947041 0.04916339 0.1508673 -0.004420555 0.08182813 0.04701147 0.08027174 -0.02503147 -0.04715993 -0.09350474 -0.02008464 0.07710999 -0.03651811 0.101217 -0.03832707 0.1185971 0.02568606 0.05525408 0.06451613 0.04131427 -0.005110307 -0.01445287 -0.03972433 -0.09299195 0.0115838 0.007835308 0.00779866 0.02932176 -0.0556177 -0.05240257 0.0816553 -0.01821451 0.0249383 -0.03648088 0.07964258 0.03671982 -0.06406455 -0.0491606 0.007808894 -0.008115523 0.08465094 -0.01485048 0.1242129 0.011467 -0.02703032 -0.006813955 0.03236677 0.02893321 -0.03441119 0.0445945 0.03530602 0.01395259 0.03082068 0.03006845 0.06712736 -0.05635634 0.01504687 0.08950815 0.008255898 -0.04704876 0.05049801 -0.03998976 -0.0275298 -0.01446989 -0.0001331958 0.006583784 -0.01183174 0.05601798 0.03811087 -0.07707938 -0.0001012716 0.09374823 -0.01715633 -0.01654693 -0.05994464 -0.1349147 -0.02471051 -0.09996551 0.08549367 0.05688046 -0.004912287 0.01539376 0.02840562 0.001422222 0.04438179 0.004613572 0.04618625 -0.0181454 -0.1156141 -0.05143308 -0.01284251 0.1177889 -0.02318129 0.06950293 0.05128399 0.01334392 0.09777164 -0.1430537 0.01222613 -0.01940175 -0.01675685 -0.07002317 0.05730842 0.02442992 -0.04309228 0.007755073 -0.08513093 0.05798286 0.05191479 0.08954035 0.001508322 0.1138103 0.06933341 0.01486449 -0.008831195 0.006146716 -0.01447387 -0.09937127 0.03650192 -0.02572832 -0.07934344 -0.07058832 -0.01397653 -0.05867228 0.04761514 -0.006832551 -0.1048678 -0.1367309 -0.06737118 -0.02704271 -0.06533964 0.04226812 0.01588532 0.0554893 -0.08838639 -0.05028696 -0.07493072 0.02215782 0.03237135 -0.008073351 -0.006117136 -0.002519205 0.0003808356 -0.05158565 -0.02958017 0.05945463 0.02656404 0.01984167 -0.02226579 0.09778047 0.01060257 0.05358111 0.08520332 0.0111199 0.0394143 -0.0265648 -0.1071241 0.01072014 -0.05894925 -0.05081385 0.09057059 -0.00441529 -0.06071872 -0.08213109 -0.04714534 -0.0730302 0.02050631 -0.09274661 -0.04579855 0.009895314 0.02199202 -0.01998018 -0.04340577 0.053189 0.005762123 -0.001446734 -0.02627277 -0.14483 -0.03243742 -0.07963964 -0.007669369 -0.00482139 -0.01020496 0.05103599 -0.04099995 0.001132709 -0.01493175 -0.1231705 -0.1148211 -0.06499596 -0.04663112 0.003355277 0.05119267 0.03989744 0.08013935 0.05734407 -0.03247916 -0.004613155 -0.0093266 0.0716344 0.008805999 0.01298642 0.07352489 0.04619117 -0.04965934 0.05989757 -0.02930761 0.03144104 0.0218024 0.07078319 0.03339583 -0.0695415 0.06752799 -0.07661353 0.007628251 0.004673925 -0.1894742 -0.0697233 -0.01097859 0.07709563 -0.02124854 -0.02734043 0.09602128 -0.0413869 0.03708831 -0.03957651 -0.008524888 -0.01268355 -0.07369043 -0.05199483 -0.1095255 -0.03845548 0.04517806 -0.003642562 0.09732667 0.0867448 0.05301543 -0.01538921 0.02501815 -0.05212957 0.1219993 0.06736798 -0.02274516 0.03676968 0.08091324 -0.07965336 -0.06941305 0.02566267 -0.08086631 -0.02243019 -0.02086175 0.002725228 0.02045554 -0.03631818 0.02693425 0.0247573 -0.110154 0.09723192 0.04794487 0.01613951 0.1329449 -0.00287253 -0.02213254 0.05530097 -0.007547656 0.001855967 -0.05867084 -0.006551746 -0.02577495 -0.06769162 -0.01236037 -0.06997132 0.01913677 0.001365881 -0.1413717 0.01408966 -0.07862236 0.03593822 -0.0351474 -0.04698413 -0.0712378 0.0458186 0.04482279 0.03552487 0.1056538 0.01674875 -0.09082352 0.00623362 0.07030632 -0.04851691 -0.06051427 0.03407545 -0.009843245 -0.0122799 -0.07484304 0.01974583 0.0116365 0.01189881 0.01754826 0.02930509 0.04157118 0.02912376 0.02639133 -0.00518018 0.09552368 -0.01173307 -0.03674517 
  -0.05500468 0.02207696 -0.01174742 -0.08145113 -0.05791779 0.06612225 0.05351667 -0.03940159 -0.114011 0.04659588 -0.08505383 0.02743326 -0.0975278 -0.03391648 -0.1176809 0.005880543 -0.154075 -0.03678653 0.03450489 -0.01728875 0.06036095 0.05820278 -0.06761239 -0.01586543 -0.02581005 -0.03700346 0.1014072 -0.04039629 0.01927453 0.05169872 0.06612745 0.08419257 -0.06786461 -0.1029366 0.05908016 0.1608482 0.01030935 0.05777766 -0.01259098 0.00289781 0.04375095 0.06427629 0.02850135 -0.07436793 -0.07794117 -0.0781813 -0.02206523 0.0536393 -0.1140667 -0.05223821 -0.01586916 -0.04660698 0.002183234 0.04730045 0.01620743 -0.08427824 0.03174445 0.01033559 0.08969942 0.06143507 0.06873133 0.07837328 0.01177331 0.1459639 0.05964088 -0.02112005 0.05860264 0.04727935 0.2161037 0.06133025 0.07012181 -0.0007699569 -0.05468715 -0.06751905 -0.02062099 -0.05736329 -0.003688443 -0.02379497 -0.003620704 0.01010504 -0.01218769 0.1057106 0.06671806 -0.1087702 -0.03990463 0.07523067 0.0568405 0.04292393 0.02276941 -0.04458868 -0.05669946 -0.01220285 -0.0114832 -0.04644015 0.03986309 -0.05676279 -0.03499494 0.05830922 0.09048983 0.0441935 0.06104916 0.0720399 0.03230039 0.03286017 0.02059459 -0.03284468 0.0002459696 0.044404 0.1270153 0.06860664 0.1001186 0.02594196 0.05138197 0.01672213 -0.1147546 -0.01801951 0.03440599 -0.01070533 -0.0103068 -0.04261579 -0.02620438 0.05260776 -0.04754158 -0.03343155 -0.03842073 0.001915438 0.07909121 -0.06097961 -0.07859399 -0.01654133 0.01458789 -0.05483322 -0.02898282 -0.07673585 -0.06970776 -0.06171378 0.01914927 -0.02004716 -0.004421525 0.1010768 0.05343925 0.01268552 -0.06370512 -0.05451416 0.06159496 -0.04672907 -0.02539392 0.03692693 0.06504243 0.08838781 0.03154076 -0.01775728 -0.05400519 -0.06424644 -0.0548894 0.03586069 -0.0687651 -0.01151216 0.01427156 0.004955843 0.09475466 0.02532993 -0.04149012 -0.1287332 -0.0201492 0.005719394 0.007153804 -0.06287704 -0.06041046 0.04806891 -0.01316799 -0.03246255 -0.08619628 -0.02753573 -0.02549411 0.00248482 0.07653606 0.04253106 0.04982851 0.1497666 0.1688958 0.0004295968 -0.01346076 0.07799846 -0.1030912 -0.04266443 -0.08757771 -0.02125929 0.1196935 0.07034759 -0.0743092 -0.04490584 -0.05222505 -0.02832122 -0.2432523 0.007988396 0.01358715 -0.04107864 -0.04816978 -0.03670067 -0.03022543 0.03837601 -0.0581941 -0.1363187 -0.05010522 0.03832645 0.09353811 0.04586392 -0.04061136 -0.02886635 0.001147083 -0.02853486 -0.01247018 0.02139043 0.01423259 -0.0442985 -0.03178394 0.02719739 0.1785124 0.06823702 0.0391556 0.05997998 0.05485358 0.01572731 0.04140893 -0.02594101 -0.07037367 -0.1094266 0.08887967 0.05123708 0.02952654 0.01318063 0.02161357 -0.08572137 0.08221011 -0.04608046 -0.08361264 -0.06708302 -0.07264286 -0.07193561 -0.04016749 0.03979142 0.02727162 -0.1187986 -0.01995103 0.04654064 0.01605693 -0.005801128 -0.01737344 -0.05158667 0.07061414 0.05898482 0.07980735 0.1053866 0.09090392 0.06176672 0.01769115 0.1775783 0.1386122 0.09164488 0.07289716 0.0523426 0.03140908 0.05484666 0.01412008 -0.1013355 -0.05057184 -0.1094418 0.008762883 -0.002173076 -0.02998628 -0.06601353 -0.1259024 -0.09142444 0.003082903 -0.05456109 0.008837644 0.02371938 -0.06122296 -0.06124951 0.05921292 -0.01849592 -0.03221116 -0.06091246 -0.1087897 0.1135787 0.04626885 0.05316011 -0.005416255 0.03550541 0.03500836 0.05995162 0.1797845 0.1303665 0.1408976 0.08317953 0.0800904 0.03765198 0.1162217 0.100189 0.02726455 -0.04475908 0.02574593 0.02732624 0.04777948 -0.006736068 0.01306527 -0.06752785 -0.09910189 -0.03650021 -0.03072921 -0.04723908 -0.004943001 0.02172435 -0.01035429 -0.06824394 -0.006280875 -0.1372057 -0.07441172 -0.07990478 0.03613097 0.05878217 0.1376215 0.009526908 -0.02387611 0.1255762 0.07508721 0.01045081 0.02180934 0.1045787 -0.03094882 0.07854474 0.02097587 0.1057376 0.09092882 0.07867681 0.1217915 0.005798805 0.04329415 0.02712861 0.1151967 0.02373608 -0.02228373 0.002097374 -0.04352231 -0.08160114 -0.1480663 -0.04260917 -0.1129421 0.01793345 -0.0226017 0.08873241 -0.05723038 -0.07479972 0.02481635 0.01311846 -0.0397525 -0.004448343 -0.04777613 0.01972678 -0.1506451 0.04715574 -0.05457373 -0.03020579 0.02171598 0.115821 -0.002789801 0.002872634 0.02413329 0.03859704 0.004528834 0.06302361 0.08245944 0.2123976 -0.03487252 0.1076251 0.03836086 -0.05403625 -0.0001019551 0.02841475 0.06079725 0.00832497 -0.01559615 -0.1619285 0.03756805 -0.04471144 -0.06114604 -0.02488023 -0.01515739 -0.05043333 -0.05103724 -0.02771712 0.008117763 0.03377831 0.01240221 -0.04394175 0.07684825 -0.01652745 -0.0342163 0.02783366 0.0359454 -0.0876097 0.03514983 -0.008922454 -0.01183229 0.03657029 0.07348377 0.04806343 -0.01308401 -0.009009634 0.01498886 0.0352548 0.116026 0.05940976 0.07357167 -0.1010322 -0.02658012 -0.04732262 -0.01524656 -0.00668515 0.03813431 -0.05114787 0.02024485 -0.08840814 0.0344804 -0.008245506 -0.06267077 -0.0004823897 0.04843312 0.001703314 0.1766194 0.01563662 -0.07026531 -0.06731021 0.01567876 0.002580442 -0.0009855743 -0.1079075 -0.0743548 0.04014529 
  0.04485393 -0.06074941 0.04008628 -0.05404506 -0.08426715 -0.05478384 -0.08663086 -0.001777215 -0.04830217 -0.05266345 0.04186513 -0.03635345 0.01299116 0.1216802 0.04576238 0.03251913 0.05245857 0.03386045 -0.05700697 0.05904762 -0.02429273 -0.03528014 -0.1148933 0.09270123 0.04904485 0.03846452 0.08428993 -0.04916501 -0.0009313216 -0.01025226 -0.1018405 -0.03344291 -0.02454937 -0.03465928 -0.05032497 0.1005565 0.1110732 0.1043941 0.01973867 -0.06409051 0.02266685 -0.04676997 0.03637643 -0.05698071 -0.1194382 -0.08175905 -0.1255435 0.01897602 0.08200298 0.04837377 0.1124592 0.03812416 0.1073704 0.09826533 0.07292792 0.08270267 -0.03897519 -0.06531835 0.001608851 0.1045063 -0.099285 -0.06614734 -0.1114064 0.1144214 0.02896954 0.1768571 0.05513857 0.02167838 -0.04134262 0.01844439 -0.09772195 -0.0191892 -0.06869866 0.05728341 -0.02882523 0.05328944 0.05223765 0.079701 0.06186284 0.04780708 -0.0005114224 0.06467714 0.08488538 0.06412315 -0.004889166 -0.0776798 -0.02995228 -0.01339074 -0.01892136 0.0265599 0.009528103 -0.05904006 0.05698561 0.02618389 0.05525989 0.06977116 0.1319603 -0.07504737 -0.02268111 0.06100838 -0.0787 -0.03528474 -0.01671893 0.003494227 0.009678279 0.01080707 0.02779049 -0.1010701 -0.012761 0.1418879 -0.05839982 -0.1572446 0.008734195 0.007896136 0.0154277 0.01571355 0.08847522 0.06297206 -0.04795529 0.03975394 0.03868579 0.07700096 0.08230034 0.04188352 -0.1146211 0.1291827 0.07664361 0.02294183 -0.08359802 0.09906557 0.04307017 0.08514117 0.1251403 0.1410963 0.1690827 -0.07902054 0.009282768 0.05882524 0.06645783 0.01242418 0.002487002 -0.002562378 -0.02436554 -0.03493607 0.1034041 0.09908339 0.077944 0.04999753 -0.04343323 -0.02106382 0.04983934 -0.05052785 -0.01568737 -0.01562568 -0.01636964 0.07401221 0.01730389 0.0004195794 -0.06135041 -0.0105547 0.06743695 0.05397031 0.1061965 0.001513731 -0.002878993 -0.03239055 0.01082536 -0.1055239 -0.006726873 -0.01781822 -0.01185955 0.08815503 0.014787 0.1137862 0.1239753 0.0428522 -0.05112598 0.03504701 0.03169373 0.002257523 -0.1252956 0.02238818 -0.01663273 -0.05553836 0.004826231 0.1312235 0.04918684 0.0791734 0.05032708 -0.004227236 -0.03098414 -0.06663121 0.02063048 0.1104406 -0.09726203 0.04117523 -0.0128979 -0.07662994 -0.05388424 -0.04162433 0.03777112 -0.05568763 0.04277065 0.05593202 -0.0331481 0.03156566 0.0173385 0.005099238 -0.1043035 -0.04297183 0.05810348 0.09267457 0.1970788 0.1935763 0.1782589 0.106692 0.08742298 0.08709285 0.120824 0.1102392 -0.05828157 -0.01411856 0.05555766 0.008514898 0.06802499 0.03193998 0.04189914 0.06409594 -0.07351033 -0.01694253 -0.0473497 -0.01922341 0.0923347 -0.0247266 0.166115 -0.01260313 -0.05381953 -0.1169749 0.02060641 -0.005685955 -0.1447264 0.09748226 -0.009475373 0.06244621 -0.01790206 -0.1321685 -0.1031577 -0.1394324 -0.02232602 -0.07264544 0.01421302 0.1286828 0.09613391 0.06925721 0.1485299 0.01450371 0.003784556 0.02777456 0.04050217 0.06270217 -0.0005456043 0.06330829 -0.08916386 -0.03793719 -0.005820613 0.08857526 0.01743515 -0.02550554 -0.02367021 -0.05352202 0.09194336 -0.09059408 0.09039679 0.1196252 0.01116585 0.007362226 0.02149252 -0.1598101 -0.06961311 -0.02384983 -0.08742845 0.02690377 0.06021297 0.1380755 0.0647153 -0.06887917 -0.05115134 -0.05404855 -0.03382927 -0.04414461 0.03987092 0.113595 0.04692697 0.02401083 -0.02246034 0.007729656 0.1109732 0.07372869 0.04599244 -0.05430003 -0.01617487 -0.02179451 0.009649348 0.0397397 0.01963203 -0.002646179 0.05873761 -0.0925677 0.03570051 -0.02594297 0.0006887299 -0.02107504 0.03758534 0.007430616 0.03050333 -0.1124332 -0.04176148 -0.07143328 -0.0638129 -0.1003659 -0.03285361 -0.02795085 0.01854639 0.06072539 -0.02288435 0.01124014 -0.08511167 -0.05050682 -0.04085518 0.06107496 -0.02454758 0.002471874 -0.0001381498 0.01176335 -0.017396 0.1208233 0.1099868 0.1367307 0.03895219 0.1018597 0.07959113 0.04352095 0.008845112 0.04367863 -0.02948238 0.04673099 0.01787347 -0.03678179 -0.006609422 -0.02637621 0.08136871 -0.09778216 -0.007974124 -0.06260069 -0.04261083 -0.1112842 0.006146744 -0.0716813 -0.02248268 -0.02956363 -0.05502684 -0.01116217 -0.005044755 0.001240817 -0.06000946 -0.02919652 0.0347264 -0.02776544 0.06229055 -0.0245985 0.08481973 0.01734495 -0.09111129 0.05850589 -0.003546076 -0.08742642 -0.07546902 -0.006527439 0.02988706 -0.06411187 0.03315673 0.1316204 0.1137586 0.008603059 0.06122113 0.05396395 0.120891 -0.08817805 -0.06197103 -0.02312578 -0.08058233 -0.06087258 0.1271662 0.02590505 0.02831504 0.01078411 -0.01578388 -0.2060454 -0.0639294 -0.0473482 -0.02151335 0.03710168 0.03912726 -0.04976328 -0.06627264 0.06824533 -0.06072634 0.06023722 0.002983536 -0.05531132 0.02848957 -0.02423094 -0.09373637 -0.1250341 -0.1961876 -0.03713974 -0.04439241 -0.0865188 0.04719754 0.0183358 0.05920378 -0.05650755 -0.01803231 0.1254106 0.002764918 0.09299929 0.01662172 -0.008131719 0.04300117 0.03798999 -0.01051661 0.01197023 0.007973769 -0.008033969 -0.02636077 0.04555813 0.003355741 -0.03813951 0.01034125 -0.001289559 
  0.06751303 0.0166469 -0.08268557 0.0514467 0.02497218 -0.0527913 -0.02797268 -0.06986154 0.101913 -0.134139 -0.03955831 -0.06860185 -0.03920024 -0.05280573 0.062128 0.0421315 0.1045643 -0.01535595 0.03297091 -0.08196498 -0.03431966 -0.03547019 0.05546364 -0.03277802 -0.004403321 0.009792734 0.005001311 -0.02814484 0.02887778 0.01155783 0.01554455 0.1295824 0.05848271 0.07287403 0.0004457441 0.04466274 0.08209142 -0.04720971 -0.06196987 -0.05021755 -0.01949286 -0.002711827 -0.0703968 -0.08341318 0.03430668 -0.04493267 -0.0328455 0.05501584 -0.06204684 -0.007820862 -0.05170105 -0.100965 -0.05732274 -0.003109794 -0.07770245 0.09763086 -0.1197398 -0.01841828 0.0007804648 -0.1228197 -0.04454999 -0.02619104 0.09913603 -0.02121557 -0.01981319 0.01478826 0.09899009 -0.06817854 -0.01000277 0.07301516 -0.01414415 0.03128803 -0.0009019427 0.05551693 -0.005580673 0.06762873 0.1022582 -0.01833148 -0.06434331 0.02251956 0.1173001 0.02357918 0.04748678 0.0424843 0.01040408 -0.03169867 -0.05312492 0.0163357 0.06345784 0.05480678 -0.05400914 -0.006309223 -0.01546568 -0.05428122 -0.1184979 0.02809514 0.03135604 -0.006441967 0.007271148 -0.03751417 -0.05891311 0.00378582 -0.05236492 -0.004763594 0.06435791 0.07058256 -0.04367029 0.15138 -0.1050622 0.01690316 0.018177 -0.07020618 -0.06927391 -0.08104803 0.06542996 0.1158117 0.07024616 -0.02567755 0.01933947 0.03417448 -0.02613957 -0.04375445 -0.001312855 0.02371293 0.05725862 0.03625262 -0.09617601 -0.05933691 0.1143735 -0.02869108 0.02085791 0.03358563 0.05230353 -0.04839818 -0.01857891 0.01848452 0.01925091 0.01403883 -0.09373233 -0.03483255 -0.02743965 0.06413073 0.04324453 0.05979163 -0.0522834 0.04940271 0.04154538 -0.1308359 -0.03821389 0.1141963 -0.06904105 -0.03191377 0.04257657 0.01279639 0.03278822 -0.03830238 -0.03815517 -0.07026541 0.002728696 0.03899426 0.1136468 -0.04655684 -0.01365564 0.01513711 0.05530639 0.01134261 -0.05928646 0.00844858 -0.05747868 0.001869141 0.05456255 0.02779543 -0.005771623 -0.08408709 0.04657331 -0.08324721 0.1046614 0.01047515 -0.00656245 -0.04196018 -0.002669433 -0.02236697 0.01038862 0.05283425 -0.07909632 -0.01537528 -0.05857212 0.02143827 0.06565154 0.03017894 0.01990489 0.0552978 -0.0119379 0.02709021 -0.03355443 0.03827723 0.06481384 0.0892292 -0.01546288 -0.002668264 0.08318076 -0.02622111 -0.05877867 0.03065695 -0.04966861 -0.01015217 -0.03176453 -0.08571523 0.05291342 -0.05390858 0.02703373 -0.007883538 -0.09583348 0.02377912 0.05124421 -0.01765475 0.05307313 0.08563121 0.05223842 -0.01139976 0.0651607 -0.07753788 -0.05500149 -0.00206325 -0.07032758 0.03532949 0.02645689 -0.07595409 -0.05523894 0.05084694 0.002928878 0.06199615 -0.08883013 -0.03251216 0.01681497 -0.06947446 -0.02389835 0.08498709 0.006403366 0.030627 0.03433214 0.01574166 -0.02846853 -0.03421709 0.09060178 0.08284983 -0.1008958 -0.02783291 -0.0187623 0.0023209 0.05724281 0.02138516 0.06090602 -0.005937454 -0.05695245 0.0879598 -0.05229419 -0.09937823 0.07566401 -0.02420907 0.009906659 0.06899742 0.03846163 -0.06482153 0.008257769 0.02474337 -0.07849132 -0.05237953 0.03153556 0.04014807 0.04210423 -0.01874592 0.04913291 -0.1447655 0.1373031 0.02067778 0.07506838 0.004130139 -0.06747162 0.05509485 0.04495339 0.01329318 0.0300369 -0.02312701 -0.04521036 0.09370824 0.04158933 0.01049096 -0.07890075 -0.02225444 0.01101491 -0.09933636 0.04289143 -0.0845916 -0.0606697 0.03432435 -0.04944544 -0.02801543 -0.05681582 -0.008577692 0.004334983 -0.01001886 -0.004508602 -0.002547974 -0.02606438 0.02255715 -0.01228746 0.04628819 0.03046849 -0.03059363 0.08602233 0.07050091 -0.04613126 0.08225332 0.07874448 0.03960931 -0.03014741 -0.01024995 -0.03581022 -0.01702821 -0.04283645 -0.05633182 -0.0282635 0.04898949 0.08232062 -0.04810693 0.01601065 -0.02827376 0.04475066 0.05133817 0.0316013 -0.005845814 -0.0544342 0.08208258 0.01647306 -0.0129748 0.04441545 0.07337289 -0.07703544 -0.01578736 -0.07043318 -0.09229138 -0.01367651 0.006156244 0.05035487 -0.1152374 0.01091137 -0.001609695 0.04860737 0.0004346019 0.09549969 0.1604973 0.02178396 -0.002468096 0.03278128 0.01245228 0.08863223 0.05734092 -0.01153996 -0.08311154 0.01392898 -0.03478449 0.003520037 -0.03424264 0.0005080253 -0.004514116 0.1064346 0.0670762 0.06994569 0.06331665 -0.006055506 -0.03636467 0.03710306 0.08677504 -0.03542969 -0.06020598 -0.01564347 -0.008275057 -0.06546356 0.06383115 -0.03038307 0.06787226 -0.08483792 -0.1120142 -0.04772894 -0.03806114 -0.001851004 0.01823305 0.04440166 0.01703246 0.003091442 0.1058775 0.0277211 0.06075058 0.03622485 0.004784767 -0.03400404 0.02998974 0.01896012 -0.05964637 0.05766236 0.0567105 0.009197172 -0.0002596008 -0.09168829 -0.005045716 0.0006654449 0.007140729 -0.06658485 -0.05637639 -0.03824358 0.09507582 0.008108601 -0.04096784 0.04189694 0.03767854 -0.1175311 -0.01377763 -0.004889316 0.003887726 0.001820701 0.02675183 -0.1390275 -0.1044207 -0.01460303 -0.02466552 0.03997924 -0.05709753 0.05642324 0.01057779 0.05708718 0.0947992 0.08086324 0.04008272 -0.006690564 0.1503818 0.005890911 -0.1037111 0.0608663 0.07970842 
  0.08984135 -0.0113984 -0.01895015 0.03545951 0.02580054 -0.04437827 -0.03711561 -0.07525597 0.08874127 -0.06384415 -0.05215911 -0.08036008 -0.2084704 -0.2076154 -0.07876189 -0.1733689 -0.2467734 -0.06401691 -0.09027004 0.0593111 -0.05088343 0.1533465 0.0268306 0.02519617 0.1008998 -0.1288002 -0.1412108 -0.05532512 0.01903606 0.03577213 -0.02755083 0.09019822 0.2532558 0.1608799 0.1832576 0.1122483 -0.01316294 0.02336243 -0.06995822 -0.1370627 -0.0114181 0.01174656 0.04840266 0.01846878 0.02131238 -0.1383537 -0.01714162 0.01612154 0.004887224 0.04849089 -0.05218539 -0.08389084 -0.08993508 -0.0782908 -0.01812435 -0.2007698 -0.1202598 -0.03741247 -0.02735172 0.1583333 0.08607471 0.03654241 -0.01272444 0.02887545 0.06545751 -0.07515996 -0.1172521 0.000236875 0.1691252 0.09543633 0.00171987 0.1810528 0.02844539 0.1537945 0.1300791 0.06884323 0.1309102 -0.09874144 -0.007423194 -0.03887948 -0.07540694 0.004691468 -0.06524878 -0.01885951 -0.09322548 -0.06136907 0.01736102 -0.01220344 0.05079198 0.03078381 0.05362149 -0.0767125 -0.08908903 -0.1148498 -0.0288696 -0.04994714 -0.02329061 0.1353274 0.1320159 0.130497 0.1271782 0.116578 -0.1247822 0.08028943 0.101617 -0.02738741 -0.1640311 0.01106706 0.07170615 0.1194895 0.008491112 0.04773936 0.08852658 0.07447351 0.04682088 0.1651465 -0.02597253 -0.08483607 -0.05010348 -0.05514366 -0.05692619 -0.02690383 0.001094146 0.03419676 0.01382216 -0.04719466 0.01784067 0.124738 0.05339805 0.06118637 0.04401183 -0.09585755 -0.07749429 0.009531812 -0.0559586 -0.04108334 -0.001570945 0.0217509 0.1593025 0.1665025 0.07653335 -0.04092652 -0.07633857 -0.07488076 0.1039282 -0.1775056 -0.0859726 0.07567214 0.2025759 0.103138 0.07411258 0.1604475 0.01425574 0.1392266 0.1031007 0.02348045 0.001127407 -0.09858818 -0.02006182 0.02272714 -0.09322645 -0.02558086 0.04953028 0.005198881 -0.02727994 -0.09226268 -0.05188166 0.05757052 -0.01703468 0.05009658 -0.1006375 -0.06426626 -0.0008676625 -0.05525103 0.08917243 -0.007364938 0.04393964 0.08639121 0.07335942 0.2800338 0.07757794 -0.05676394 -0.193714 -0.08754826 0.02125738 -0.1903686 -0.1306448 -0.0496804 0.07963531 0.02745337 -0.04484812 0.07695798 -0.02995374 0.08298742 0.05570938 0.08918611 -0.006854062 0.03353027 -0.05022229 -0.005029097 -0.0428678 -0.09758221 -0.04855775 -0.05906524 -0.1047599 -0.02247811 -0.05342999 0.1617639 0.05022286 0.018668 -0.0581459 -0.1693411 -0.1022908 0.01465664 0.08707099 0.05160644 0.1284555 0.199994 0.004008496 0.1810876 0.1425188 -0.01239082 -0.03736271 -0.07266615 0.00865146 -0.1559554 -0.1531822 -0.1065771 0.03369695 0.008047324 -0.02573994 0.1527936 0.003845399 0.142947 0.04999849 0.02503854 0.00184373 -0.01798267 -0.08307213 -0.05062412 -0.05362269 -0.0248865 -0.09712771 0.007418822 0.008140607 0.008860311 -0.07590991 -0.02732435 0.06667401 0.05545958 -0.07868979 -0.1545422 -0.0455813 0.03135563 0.065223 0.09826742 0.08357273 0.08360663 -0.012494 0.2361019 0.02367751 -0.07899956 -0.1391259 -0.08644043 0.01661319 -0.167985 -0.2044387 -0.1014494 0.02280213 0.09356854 -0.01778835 0.02656283 -0.06935027 0.1083343 -0.01439362 0.05990845 0.0001798052 0.1599503 -0.1164883 -0.03199152 0.05157116 0.1238123 0.003948289 0.1303022 -0.09056645 -0.007471563 -0.07682054 -0.05505896 0.009102536 -0.01256868 -0.2367974 -0.1011412 -0.02751388 -0.04257957 0.1564663 0.06493776 0.08191149 0.0890201 -0.07774275 0.1723739 -0.03153599 -0.1016357 -0.1444734 0.0411006 0.0354006 -0.2429765 -0.1330129 -0.2277372 0.01593198 0.03712128 -0.03953273 0.01194148 0.05858964 0.1084382 -0.04201195 0.04927021 0.06326363 0.03492627 -0.04811199 -0.01087896 0.06687881 0.1649075 0.001372418 0.06845568 -0.1279051 -0.03927797 -0.07530458 -0.009329141 -0.04592441 -0.02980489 -0.1042056 -0.05482778 -0.00324904 0.1593652 0.2012425 0.08056352 0.1640617 0.0904759 -0.09893262 -0.01103405 -0.006721103 -0.1117847 -0.06396066 -0.0401492 -0.05201515 -0.1500164 -0.2020815 -0.009898952 0.1492094 0.03595417 0.003416291 0.08829279 0.09477336 -0.1096981 0.09081256 0.06520543 0.02227459 0.01870293 -0.1180632 -0.03469331 -0.01999912 0.03112224 0.00501817 0.07205862 0.01592993 -0.0460184 -0.03637132 0.04772348 -0.05305916 -0.0463231 -0.118327 -0.004433902 0.02066424 0.1582896 0.1222119 0.1549039 0.0506576 0.140297 -0.06338865 0.006355586 -0.04980444 -0.1674966 -0.1007879 -0.03614971 0.07401458 -0.1287791 -0.08551438 -0.04138514 -0.02484811 0.1272359 -0.06470957 0.08348915 0.1360756 0.1123054 -0.002683634 0.04077591 0.07182064 0.03046451 -0.02507954 -0.07573684 -0.03566115 -0.0259214 -0.009001048 -0.0592653 0.06070036 0.02245248 0.01116202 0.003008456 0.05557316 0.05952754 0.03033555 0.01917958 0.08740257 0.1280142 0.1657615 0.06407765 0.07957719 0.03529074 -0.05400994 0.1299876 -0.0617221 -0.2063893 -0.1599809 -0.1414051 -0.06378151 -0.1044055 -0.08413135 -0.07287854 0.09338157 0.09391235 0.05182859 0.1760768 0.04095652 0.02650874 0.07907409 0.02788548 0.03360392 -0.01382465 -0.06435926 -0.03670475 
  -0.2782193 0.04442596 -0.105313 -0.03463678 -0.04408327 -0.01999755 0.02797245 0.03945531 -0.01884856 0.07251757 0.02137298 0.1405078 0.1544593 -0.07167107 -0.04096005 0.03539618 -0.04763356 0.04621661 0.03991617 -0.00106986 -0.03405178 -0.03991868 0.04712265 0.02081449 -0.02581576 -0.02451151 0.01869253 0.05501988 -0.1496574 0.1155505 -0.04111919 -0.1098186 -0.03210142 -0.08278716 -0.09389023 -0.08922327 -0.1510032 0.03917091 0.04488961 0.07252755 -0.3230056 -0.02609113 0.005442147 0.04335171 -0.04973296 -0.03102739 -0.06097922 -0.003578653 0.0418011 0.03327731 0.05336018 0.09230111 -0.002617323 0.04975959 -0.03198619 -0.07745796 -0.05905125 0.008542707 0.07635774 0.08253635 0.04026419 -0.0774393 0.1374412 0.1216348 0.02078557 0.01380314 0.003960593 -0.009433769 -0.1555486 0.05282485 0.0129003 -0.1655864 -0.07149477 -0.04867369 -0.01518554 -0.04980681 -0.02702862 -0.006697889 0.150212 0.1215784 -0.217278 -0.108644 0.02136645 -0.01397907 0.03483972 -0.1013605 -0.07889161 0.0530556 0.07083602 0.06080253 0.09139177 0.1168698 -0.02147629 0.1436597 -0.07204074 -0.03121095 0.05869395 -0.02655639 -0.1161615 -0.005910448 -0.05927223 -0.1200762 0.01008264 -0.04940153 -0.01747935 0.01620067 0.08650879 0.01725145 0.03606894 0.05790491 0.03963538 -0.01550364 -0.1306301 -0.06057382 -0.0009676146 -0.03041841 -0.03135202 -0.05984809 0.0789991 0.1869264 -0.2452335 -0.142479 -0.07039243 -0.02849855 0.09556116 -0.007330662 0.0163398 -0.07429849 -0.03718063 0.01861329 0.02002064 0.1213938 0.02562398 -0.06859778 -0.07439468 -0.09458449 -0.0101498 -0.03655281 0.1309115 0.01331855 0.03595908 -0.09631652 0.08999841 0.0150407 -0.06357005 0.07597803 -0.03105743 0.03209233 0.02673276 0.05145331 0.01488851 -0.007603633 -0.07874871 -0.04538232 -0.006958724 -0.04932079 -0.02051979 0.009368472 0.08317073 0.08877961 -0.2271138 -0.08715726 -0.1407348 -0.01004901 -0.01148009 -0.02618519 -0.0609185 -0.02583635 -0.07539432 0.01336851 0.07415573 0.08964685 -0.003539117 -0.03232526 -0.06398805 -0.009900738 -0.05930505 0.03067175 -0.01740211 0.02132792 0.09923035 -0.03249494 0.09671376 -0.004768361 -0.07255591 -0.04664563 0.1073855 -0.002333966 -0.01699368 0.03133368 -0.05154188 -0.0375423 0.02624906 0.02945423 0.03337499 -0.07357256 0.00297082 0.003669685 0.07092042 0.06514721 -0.2639371 0.01574601 -0.1065971 0.04626341 -0.05621603 -0.04633509 -0.1048369 -0.07218706 -0.08030568 0.05002772 -0.04580289 0.0006941088 0.1115989 -0.05965193 -0.1114032 -0.02124829 0.01166544 0.0231357 -0.07221638 0.05278997 -0.1068698 -0.08364641 0.06448171 -0.02274335 -0.02017936 -0.02591656 0.09839333 -0.01448987 -0.03653101 0.04948319 0.02315659 -0.001607343 -0.01503998 -0.08184306 -0.06081768 0.01949301 -0.09224685 0.08052941 0.04945272 0.04948611 -0.1185939 -0.04540011 -0.008226781 -0.03383219 -0.04165501 -0.06280592 -0.07147939 0.007765086 -0.05170334 -0.08501241 -0.08979896 0.02308078 0.027799 0.04415405 -0.02139682 0.04950499 0.04579992 -0.0001773634 0.03111074 -0.02170642 -0.007025735 0.006933602 0.06537386 -0.03213633 -0.06226706 0.08916868 0.08435396 -0.06883642 -0.02149737 0.03262386 0.05524845 0.09305557 -0.04236923 -0.0189879 0.001517984 -0.05752835 0.02224135 0.002011224 0.08013286 0.03209581 -0.1925478 0.03595224 0.001683188 -0.1344113 -0.04334011 -0.05897014 0.01851589 -0.03477177 -0.007080263 -0.04817849 0.02125242 -0.03230768 -0.05776424 -0.04523732 0.05432572 -0.05065495 -0.03760154 0.09999054 -0.01766398 0.04684036 -0.04399427 -0.09384488 0.06834298 -0.03568183 -0.1113571 0.1139154 0.08608308 0.02857747 -0.06130614 -0.05891934 0.06609772 0.1105587 -0.07553556 -0.0855927 -0.10059 -0.04934699 -0.001141646 0.0428826 0.04338535 0.03795423 -0.2386857 -0.003156699 -0.009817872 -0.03216422 0.0227219 0.02435305 -0.06864394 0.05946355 -0.04062036 0.01370793 -0.04462799 -0.005370565 0.01312566 0.05335002 0.035472 0.04328677 -0.001942976 -0.02477262 0.05130862 0.09096394 -0.1030943 -0.0963761 0.02459059 -0.1231335 -0.119059 0.02773799 0.04384536 0.02996205 -0.01316916 0.1723996 0.06554829 0.06433103 -0.2106718 -0.09191886 -0.06503459 0.04286537 0.056121 -0.03792513 -0.05910653 -0.1144144 -0.2976815 -0.1467035 0.007966323 0.01209787 -0.04565105 -0.03858319 0.04559209 -0.0329248 -0.03304097 -0.04614941 0.02823476 0.09280512 -0.07445991 -0.02131058 0.04414335 -0.04999136 -0.03139373 0.04989306 0.05395229 0.03135231 0.03596283 -0.08348175 -0.1258398 -0.01266064 -0.06123409 0.008717094 0.01010642 -0.04395157 0.1142342 0.05701336 -0.08253042 0.094102 -0.05295546 -0.04450076 0.004558196 -0.1202743 -0.001525996 0.0359762 -0.003447303 -0.03409149 -0.4096114 -0.1041838 -0.09982599 -0.09301035 0.02713714 -0.04304615 -0.04867382 0.02045937 -0.1232517 -0.04394246 0.09592845 0.06114416 0.04775184 -0.03959469 0.1062492 0.006424833 -0.1054489 0.09174236 0.05079203 0.07228939 -0.05365713 -0.03542243 -0.009307528 -0.07345872 -0.09668741 0.1106446 0.07680003 -0.006437276 0.004268788 0.07753716 -0.02195277 -0.0003889532 -0.04370082 -0.0509295 -0.04118548 -0.01551169 0.006473624 -0.0844413 0.005105522 0.02266888 
